{"learner":{"attributes":{"scikit_learn":"{\"_estimator_type\": \"regressor\"}"},"feature_names":["hour_of_day","day_of_week","is_weekend","month","origin_iata","destination_iata","distance_km","dep_temperature_c","dep_precipitation_mm","dep_wind_speed_kmh","dep_visibility_m","dep_humidity_pct","dep_storm_indicator","dep_flights_this_hour","dep_congestion_ratio","turnaround_time_min"],"feature_types":["int","int","int","int","int","int","float","float","float","float","float","float","int","int","float","float"],"gradient_booster":{"model":{"cats":{"enc":[],"feature_segments":[],"sorted_idx":[]},"gbtree_model_param":{"num_parallel_tree":"1","num_trees":"100"},"iteration_indptr":[0,1,2,3,4,5,6,7,8,9,10,11,12,13,14,15,16,17,18,19,20,21,22,23,24,25,26,27,28,29,30,31,32,33,34,35,36,37,38,39,40,41,42,43,44,45,46,47,48,49,50,51,52,53,54,55,56,57,58,59,60,61,62,63,64,65,66,67,68,69,70,71,72,73,74,75,76,77,78,79,80,81,82,83,84,85,86,87,88,89,90,91,92,93,94,95,96,97,98,99,100],"tree_info":[0,0,0,0,0,0,0,0,0,0,0,0,0,0,0,0,0,0,0,0,0,0,0,0,0,0,0,0,0,0,0,0,0,0,0,0,0,0,0,0,0,0,0,0,0,0,0,0,0,0,0,0,0,0,0,0,0,0,0,0,0,0,0,0,0,0,0,0,0,0,0,0,0,0,0,0,0,0,0,0,0,0,0,0,0,0,0,0,0,0,0,0,0,0,0,0,0,0,0,0],"trees":[{"base_weights":[2.3727527E-7,-8.640139E-1,6.3989555E1,-2.0929399E0,9.931188E0,1.0109923E2,6.1795235E1,-3.042043E0,2.1522496E0,8.018902E0,2.1067272E1,1.0288516E2,9.1358185E0,7.3733635E1,6.0899773E1,-2.680405E0,-5.2323885E0,3.2354352E0,-3.4720938E0,9.155959E0,2.1404643E0,2.2212679E1,1.4920314E1,1.0296131E1,2.9130626E0,6.844729E1,7.535217E1,6.2187126E1,5.3728878E1,-3.2293296E0,-1.0458481E0,-5.747816E0,-4.028627E0,3.891742E0,-3.2129116E0,-4.2247367E0,-1.7113731E0,4.274206E0,1.0393067E1,1.1866351E0,4.4346504E0,2.1483286E1,2.444548E1,1.3638799E1,1.7829712E1,5.989139E0,7.1574615E1,7.6354556E0,6.521424E1,6.744503E1,6.146078E1,6.1282207E1,5.264492E1,-1.5996902E-1,-4.68E-1,-3.3325512E-2,-1.982309E-1,-4.3455535E-1,-6.5871304E-1,-3.4084928E-1,-4.7012925E-1,3.1450555E-1,6.119883E-1,-3.693614E-1,-1.6819516E-1,-2.3855157E-1,-5.401745E-1,2.3746991E-1,-2.1175496E-1,3.3983082E-1,6.904212E-1,1.1143506E0,7.421396E-1,3.8519824E-1,-5.318668E-2,5.111278E-1,2.033607E-1,2.3118253E0,2.0070817E0,2.517569E0,2.12485E0,1.615062E0,1.2062135E0,1.9356121E0,1.597885E0,7.2184763E0,3.2020936E0,2.6807501E0,6.603401E0,6.394904E0,6.8915253E0,6.2122912E0,5.8561854E0,7.3206797E0,5.931829E0,5.272386E0,2.8366785E0],"categories":[],"categories_nodes":[],"categories_segments":[],"categories_sizes":[],"default_left":[0,0,0,0,0,0,0,0,0,0,0,0,0,0,0,0,0,0,0,0,0,0,0,0,0,0,0,0,0,0,0,0,0,0,0,0,0,0,0,0,0,0,0,0,0,0,0,0,0,0,0,0,0,0,0,0,0,0,0,0,0,0,0,0,0,0,0,0,0,0,0,0,0,0,0,0,0,0,0,0,0,0,0,0,0,0,0,0,0,0,0,0,0,0,0,0,0],"id":0,"left_children":[1,3,5,7,9,11,13,15,17,19,21,23,-1,25,27,29,31,33,35,37,39,41,43,-1,-1,45,47,49,51,53,55,57,59,61,63,65,67,69,71,73,75,77,79,81,83,-1,85,-1,87,89,91,93,95,-1,-1,-1,-1,-1,-1,-1,-1,-1,-1,-1,-1,-1,-1,-1,-1,-1,-1,-1,-1,-1,-1,-1,-1,-1,-1,-1,-1,-1,-1,-1,-1,-1,-1,-1,-1,-1,-1,-1,-1,-1,-1,-1,-1],"loss_changes":[5.244708E7,1.2417202E7,1.022872E6,3.3857548E6,2.03699E6,2.8475E3,1.231E5,5.439895E5,9.3543325E5,5.456985E5,9.8373E4,2.98E2,0E0,1.9265E3,9.92E4,5.28885E5,6.035975E4,5.448904E5,3.285225E4,4.13107E5,2.8954184E4,1.87165E4,7.9780625E3,0E0,0E0,1.1985E3,1.362E3,3.1796E4,1.06765E4,1.0431785E6,9.888881E4,8.0169E4,1.2156625E4,1.94397E5,8.747016E3,3.7589312E4,1.2331373E4,3.1842484E4,1.21632E5,4.2824246E4,6.3028516E3,2.01215E4,6.2395E3,5.8842188E3,1.5864062E3,0E0,1.1879375E3,0E0,2.1334375E2,1.4115E3,1.2254E4,5.051875E2,1.36375E3,0E0,0E0,0E0,0E0,0E0,0E0,0E0,0E0,0E0,0E0,0E0,0E0,0E0,0E0,0E0,0E0,0E0,0E0,0E0,0E0,0E0,0E0,0E0,0E0,0E0,0E0,0E0,0E0,0E0,0E0,0E0,0E0,0E0,0E0,0E0,0E0,0E0,0E0,0E0,0E0,0E0,0E0,0E0,0E0],"parents":[2147483647,0,0,1,1,2,2,3,3,4,4,5,5,6,6,7,7,8,8,9,9,10,10,11,11,13,13,14,14,15,15,16,16,17,17,18,18,19,19,20,20,21,21,22,22,25,25,26,26,27,27,28,28,29,29,30,30,31,31,32,32,33,33,34,34,35,35,36,36,37,37,38,38,39,39,40,40,41,41,42,42,43,43,44,44,46,46,48,48,49,49,50,50,51,51,52,52],"right_children":[2,4,6,8,10,12,14,16,18,20,22,24,-1,26,28,30,32,34,36,38,40,42,44,-1,-1,46,48,50,52,54,56,58,60,62,64,66,68,70,72,74,76,78,80,82,84,-1,86,-1,88,90,92,94,96,-1,-1,-1,-1,-1,-1,-1,-1,-1,-1,-1,-1,-1,-1,-1,-1,-1,-1,-1,-1,-1,-1,-1,-1,-1,-1,-1,-1,-1,-1,-1,-1,-1,-1,-1,-1,-1,-1,-1,-1,-1,-1,-1,-1],"split_conditions":[1E0,2.01E0,5E2,7.18E1,9.97E0,3.53E1,2E3,7.92E2,7.233E2,7.233E2,7.479E2,2.2E1,9.1358185E0,7E0,7.351E2,1.7E1,1.7E1,1E1,1.7E1,7.28E1,1.7E1,1.7E1,1.7E1,1.0296131E1,2.9130626E0,6E0,1.218E3,1.414E1,1.444E1,1E1,1.3E1,1E1,1.3E1,1.7E1,1.7E1,1E1,8.452E2,1.7E1,9E0,1E1,2.2E1,1E1,9E0,1E1,1.3E1,5.989139E0,1.4E1,7.6354556E0,1.51E1,8.47E1,9E0,2.54E1,5.217391E-1,-1.5996902E-1,-4.68E-1,-3.3325512E-2,-1.982309E-1,-4.3455535E-1,-6.5871304E-1,-3.4084928E-1,-4.7012925E-1,3.1450555E-1,6.119883E-1,-3.693614E-1,-1.6819516E-1,-2.3855157E-1,-5.401745E-1,2.3746991E-1,-2.1175496E-1,3.3983082E-1,6.904212E-1,1.1143506E0,7.421396E-1,3.8519824E-1,-5.318668E-2,5.111278E-1,2.033607E-1,2.3118253E0,2.0070817E0,2.517569E0,2.12485E0,1.615062E0,1.2062135E0,1.9356121E0,1.597885E0,7.2184763E0,3.2020936E0,2.6807501E0,6.603401E0,6.394904E0,6.8915253E0,6.2122912E0,5.8561854E0,7.3206797E0,5.931829E0,5.272386E0,2.8366785E0],"split_indices":[12,8,10,11,8,7,10,15,15,15,15,0,0,3,15,0,0,3,0,11,0,0,0,0,0,5,15,8,8,0,4,0,4,0,0,0,15,0,3,0,4,0,3,0,4,0,13,0,7,11,3,7,14,0,0,0,0,0,0,0,0,0,0,0,0,0,0,0,0,0,0,0,0,0,0,0,0,0,0,0,0,0,0,0,0,0,0,0,0,0,0,0,0,0,0,0,0],"split_type":[0,0,0,0,0,0,0,0,0,0,0,0,0,0,0,0,0,0,0,0,0,0,0,0,0,0,0,0,0,0,0,0,0,0,0,0,0,0,0,0,0,0,0,0,0,0,0,0,0,0,0,0,0,0,0,0,0,0,0,0,0,0,0,0,0,0,0,0,0,0,0,0,0,0,0,0,0,0,0,0,0,0,0,0,0,0,0,0,0,0,0,0,0,0,0,0,0],"sum_hessian":[9.48616E5,9.35979E5,1.2637E4,8.40318E5,9.5661E4,7.03E2,1.1934E4,6.86775E5,1.53543E5,8.1643E4,1.4018E4,5.86E2,1.17E2,8.27E2,1.1107E4,5.89455E5,9.732E4,1.28748E5,2.4795E4,6.841E4,1.3233E4,1.1814E4,2.204E3,5.85E2,1E0,2.04E2,6.23E2,9.41E3,1.697E3,4.41266E5,1.48189E5,6.814E4,2.918E4,1.16855E5,1.1893E4,1.7369E4,7.426E3,1.3832E4,5.4578E4,9.348E3,3.885E3,8.913E3,2.901E3,1.534E3,6.7E2,6E1,1.44E2,5.61E2,6.2E1,1.131E3,8.279E3,2.06E2,1.491E3,2.07815E5,2.33451E5,8.4154E4,6.4035E4,2.5516E4,4.2624E4,1.5186E4,1.3994E4,8.7526E4,2.9329E4,9.05E3,2.843E3,6.779E3,1.059E4,6.71E2,6.755E3,1.0378E4,3.454E3,4.3572E4,1.1006E4,3.664E3,5.684E3,3.03E3,8.55E2,4.124E3,4.789E3,2.356E3,5.45E2,5.88E2,9.46E2,3.62E2,3.08E2,1.41E2,3E0,2E0,6E1,3.48E2,7.83E2,6.723E3,1.556E3,2.4E1,1.82E2,1.485E3,6E0],"tree_param":{"num_deleted":"0","num_feature":"16","num_nodes":"97","size_leaf_vector":"1"}},{"base_weights":[1.2524436E-4,-7.775952E-1,5.75987E1,-1.8836495E0,8.938271E0,9.102105E1,5.562242E1,-2.794786E0,1.7199687E0,7.2170596E0,1.8961637E1,9.352586E1,8.519889E0,6.640053E1,5.4814003E1,-3.26568E0,-1.4418093E0,2.6741998E0,-3.1760213E0,8.240405E0,1.9264966E0,1.9992168E1,1.3431165E1,9.476921E1,7.8243876E0,6.168261E1,6.784407E1,5.5971107E1,4.8368572E1,-1.7641582E0,-4.5342097E0,-1.0127329E0,-3.690736E0,3.424345E0,-2.879343E0,-3.8746004E0,-1.5562646E0,3.8468602E0,9.353795E0,1.0680068E0,3.9913695E0,2.0598337E1,1.7517046E1,1.2276756E1,1.6052008E1,7.1644874E0,9.564058E0,4.103721E1,6.2641693E1,6.8858414E0,5.9744064E1,5.4955643E1,5.9199318E1,5.521801E1,4.7385864E1,-4.8027182E-1,-1.320553E-1,-4.2629406E-1,-5.928048E-1,-3.769186E-2,-1.8477292E-1,-3.3559796E-1,-4.7811213E-1,2.7665395E-1,5.385984E-1,-3.3272254E-1,-1.4636299E-1,-2.2602259E-1,-4.933045E-1,2.0358396E-1,-2.0250972E-1,2.3955758E-1,5.335415E-1,1.002918E0,6.6793233E-1,3.4668887E-1,-4.786898E-2,4.600319E-1,1.830484E-1,1.82074E0,2.1278672E0,1.1095619E0,1.7811941E0,1.4538299E0,1.0857195E0,1.73557E0,1.428995E0,1.1586056E0,4.266131E0,6.2827697E0,1.3371387E0,1.1712897E0,6.0221934E0,5.690503E0,5.400842E0,5.145857E0,5.9663734E0,2.5022066E0,5.5539412E0,4.9953527E0,4.637336E0],"categories":[],"categories_nodes":[],"categories_segments":[],"categories_sizes":[],"default_left":[0,0,0,0,0,0,0,0,0,0,0,0,0,0,0,0,0,0,0,0,0,0,0,0,0,0,0,0,0,0,0,0,0,0,0,0,0,0,0,0,0,0,0,0,0,0,0,0,0,0,0,0,0,0,0,0,0,0,0,0,0,0,0,0,0,0,0,0,0,0,0,0,0,0,0,0,0,0,0,0,0,0,0,0,0,0,0,0,0,0,0,0,0,0,0,0,0,0,0,0,0],"id":1,"left_children":[1,3,5,7,9,11,13,15,17,19,21,23,-1,25,27,29,31,33,35,37,39,41,43,45,-1,47,49,51,53,55,57,59,61,63,65,67,69,71,73,75,77,79,81,83,85,-1,-1,87,89,-1,91,93,95,97,99,-1,-1,-1,-1,-1,-1,-1,-1,-1,-1,-1,-1,-1,-1,-1,-1,-1,-1,-1,-1,-1,-1,-1,-1,-1,-1,-1,-1,-1,-1,-1,-1,-1,-1,-1,-1,-1,-1,-1,-1,-1,-1,-1,-1,-1,-1],"loss_changes":[4.2493904E7,1.0058314E7,8.29704E5,2.7590988E6,1.650255E6,2.2985E3,1.00352E5,4.273245E5,7.923077E5,4.42011E5,7.96305E4,1.7435E3,0E0,1.45425E3,8.0134E4,9.47705E5,1.6710256E5,5.912726E5,3.1294312E4,3.34612E5,2.3455285E4,1.73655E4,6.4742188E3,2.03375E3,0E0,1.4885625E3,1.013E3,2.76E4,8.813E3,3.071255E5,1.019515E5,7.720794E4,1.0111625E4,1.6133125E5,1.0704625E4,3.3011688E4,1.4044428E4,2.987086E4,9.85185E4,3.468965E4,5.105051E3,1.50415E4,4.2164375E3,4.7701094E3,1.2933906E3,0E0,0E0,7.9703125E1,9.3775E2,0E0,1.0619688E3,1.017E4,4.9785E3,6.1925E2,1.56225E3,0E0,0E0,0E0,0E0,0E0,0E0,0E0,0E0,0E0,0E0,0E0,0E0,0E0,0E0,0E0,0E0,0E0,0E0,0E0,0E0,0E0,0E0,0E0,0E0,0E0,0E0,0E0,0E0,0E0,0E0,0E0,0E0,0E0,0E0,0E0,0E0,0E0,0E0,0E0,0E0,0E0,0E0,0E0,0E0,0E0,0E0],"parents":[2147483647,0,0,1,1,2,2,3,3,4,4,5,5,6,6,7,7,8,8,9,9,10,10,11,11,13,13,14,14,15,15,16,16,17,17,18,18,19,19,20,20,21,21,22,22,23,23,25,25,26,26,27,27,28,28,29,29,30,30,31,31,32,32,33,33,34,34,35,35,36,36,37,37,38,38,39,39,40,40,41,41,42,42,43,43,44,44,47,47,48,48,50,50,51,51,52,52,53,53,54,54],"right_children":[2,4,6,8,10,12,14,16,18,20,22,24,-1,26,28,30,32,34,36,38,40,42,44,46,-1,48,50,52,54,56,58,60,62,64,66,68,70,72,74,76,78,80,82,84,86,-1,-1,88,90,-1,92,94,96,98,100,-1,-1,-1,-1,-1,-1,-1,-1,-1,-1,-1,-1,-1,-1,-1,-1,-1,-1,-1,-1,-1,-1,-1,-1,-1,-1,-1,-1,-1,-1,-1,-1,-1,-1,-1,-1,-1,-1,-1,-1,-1,-1,-1,-1,-1,-1],"split_conditions":[1E0,2.01E0,5E2,7.03E1,9.97E0,7.66E1,2E3,1.7E1,7.122E2,7.233E2,7.479E2,3.61E1,8.519889E0,7E0,7.351E2,1E1,8.641E2,1E1,1.7E1,7.28E1,1.7E1,9E0,1.7E1,1E0,7.8243876E0,4E-2,1.0904E3,3.09E1,1.444E1,6E0,5.435E2,1.3E1,2.2E1,1.7E1,1.7E1,1E1,1.0271E3,6E0,9E0,1E1,2.2E1,7E0,6E0,1E1,1.5E1,7.1644874E0,9.564058E0,5E0,5.833333E-1,6.8858414E0,6.63E1,9E0,2.7E3,5.17E0,1E1,-4.8027182E-1,-1.320553E-1,-4.2629406E-1,-5.928048E-1,-3.769186E-2,-1.8477292E-1,-3.3559796E-1,-4.7811213E-1,2.7665395E-1,5.385984E-1,-3.3272254E-1,-1.4636299E-1,-2.2602259E-1,-4.933045E-1,2.0358396E-1,-2.0250972E-1,2.3955758E-1,5.335415E-1,1.002918E0,6.6793233E-1,3.4668887E-1,-4.786898E-2,4.600319E-1,1.830484E-1,1.82074E0,2.1278672E0,1.1095619E0,1.7811941E0,1.4538299E0,1.0857195E0,1.73557E0,1.428995E0,1.1586056E0,4.266131E0,6.2827697E0,1.3371387E0,1.1712897E0,6.0221934E0,5.690503E0,5.400842E0,5.145857E0,5.9663734E0,2.5022066E0,5.5539412E0,4.9953527E0,4.637336E0],"split_indices":[12,8,10,11,8,15,10,0,15,15,15,7,0,3,15,0,15,3,0,11,0,3,0,5,0,14,15,9,8,0,15,4,4,0,0,0,15,3,3,0,4,3,0,0,4,0,0,4,14,0,11,0,10,8,0,0,0,0,0,0,0,0,0,0,0,0,0,0,0,0,0,0,0,0,0,0,0,0,0,0,0,0,0,0,0,0,0,0,0,0,0,0,0,0,0,0,0,0,0,0,0],"split_type":[0,0,0,0,0,0,0,0,0,0,0,0,0,0,0,0,0,0,0,0,0,0,0,0,0,0,0,0,0,0,0,0,0,0,0,0,0,0,0,0,0,0,0,0,0,0,0,0,0,0,0,0,0,0,0,0,0,0,0,0,0,0,0,0,0,0,0,0,0,0,0,0,0,0,0,0,0,0,0,0,0,0,0,0,0,0,0,0,0,0,0,0,0,0,0,0,0,0,0,0,0],"sum_hessian":[9.48616E5,9.35979E5,1.2637E4,8.40318E5,9.5661E4,7.03E2,1.1934E4,6.70731E5,1.69587E5,8.1643E4,1.4018E4,4.81E2,2.22E2,8.27E2,1.1107E4,4.97558E5,1.73173E5,1.41926E5,2.7661E4,6.841E4,1.3233E4,1.1814E4,2.204E3,4.4E2,4.1E1,2.04E2,6.23E2,9.41E3,1.697E3,2.27855E5,2.69703E5,1.45428E5,2.7745E4,1.25037E5,1.6889E4,1.9325E4,8.336E3,1.3832E4,5.4578E4,9.348E3,3.885E3,9.484E3,2.33E3,1.534E3,6.7E2,1.9E1,4.21E2,1.1E1,1.93E2,5.47E2,7.6E1,7.172E3,2.238E3,2.06E2,1.491E3,2.9026E4,1.98829E5,2.25768E5,4.3935E4,8.2562E4,6.2866E4,2.1231E4,6.514E3,9.3639E4,3.1398E4,1.2829E4,4.06E3,7.654E3,1.1671E4,9.62E2,7.374E3,7.005E3,6.827E3,4.3572E4,1.1006E4,3.664E3,5.684E3,3.03E3,8.55E2,2.107E3,7.377E3,1.04E2,2.226E3,5.88E2,9.46E2,3.8E2,2.9E2,1E0,1E1,1.92E2,1E0,1E0,7.5E1,2.326E3,4.846E3,1.33E2,2.105E3,3E0,2.03E2,4.08E2,1.083E3],"tree_param":{"num_deleted":"0","num_feature":"16","num_nodes":"101","size_leaf_vector":"1"}},{"base_weights":[2.3183989E-4,-6.9982195E-1,5.1846752E1,-1.6952881E0,8.04461E0,8.196592E1,5.0065792E1,-2.5357935E0,1.476108E0,6.495395E0,1.7066368E1,8.346871E1,7.3795543E0,5.9793232E1,4.9336193E1,-2.239999E0,-4.3075237E0,2.3160176E0,-2.904771E0,7.4354997E0,1.8115464E0,1.799353E1,1.2090634E1,8.58882E1,7.7658005E0,6.0751804E1,5.412818E1,5.0376358E1,4.3542133E1,-2.6788702E0,-9.3154144E-1,-4.7543426E0,-3.2662823E0,3.0422168E0,-2.5835302E0,-3.503499E0,-1.5012236E0,4.3207717E0,8.737923E0,9.7334856E-1,3.7703142E0,1.7339542E1,1.9996172E1,1.10507345E1,1.4451522E1,6.984388E1,8.7170315E0,3.039387E0,6.0882603E1,4.5849907E1,5.86255E1,4.9461628E1,5.3284348E1,4.2560196E1,4.921908E1,-1.3382135E-1,-3.8707796E-1,-3.5897534E-2,-1.6854753E-1,-3.7751243E-1,-5.3492063E-1,-2.7575535E-1,-3.8189647E-1,-3.732768E-1,3.213944E-1,-1.5425037E-1,-3.155999E-1,-2.0385964E-1,-4.4495296E-1,1.6835682E-1,-1.8469284E-1,2.089097E-1,5.5596024E-1,8.034744E-1,1.0947012E0,3.076764E-1,-4.3620184E-2,6.778243E-1,3.2852784E-1,1.8815964E0,1.6064472E0,2.0600765E0,1.7349609E0,1.3086938E0,9.7726214E-1,2.2495065E0,1.4157046E0,1.900053E0,7.0780435E0,6.3156886E0,5.842684E0,3.9073281E0,5.485002E0,2.5469153E0,5.958654E0,3.3049412E0,4.956292E0,5.390698E0,4.829467E0,4.2756457E0,3.2496603E0,5.0240397E0,3.360476E0],"categories":[],"categories_nodes":[],"categories_segments":[],"categories_sizes":[],"default_left":[0,0,0,0,0,0,0,0,0,0,0,0,0,0,0,0,0,0,0,0,0,0,0,0,0,0,0,0,0,0,0,0,0,0,0,0,0,0,0,0,0,0,0,0,0,0,0,0,0,0,0,0,0,0,0,0,0,0,0,0,0,0,0,0,0,0,0,0,0,0,0,0,0,0,0,0,0,0,0,0,0,0,0,0,0,0,0,0,0,0,0,0,0,0,0,0,0,0,0,0,0,0,0],"id":2,"left_children":[1,3,5,7,9,11,13,15,17,19,21,23,-1,25,27,29,31,33,35,37,39,41,43,45,-1,47,49,51,53,55,57,59,61,63,65,67,69,71,73,75,77,79,81,83,85,87,-1,-1,89,91,93,95,97,99,101,-1,-1,-1,-1,-1,-1,-1,-1,-1,-1,-1,-1,-1,-1,-1,-1,-1,-1,-1,-1,-1,-1,-1,-1,-1,-1,-1,-1,-1,-1,-1,-1,-1,-1,-1,-1,-1,-1,-1,-1,-1,-1,-1,-1,-1,-1,-1,-1],"loss_changes":[3.443042E7,8.147519E6,6.73812E5,2.2399378E6,1.336922E6,2.4845E3,8.1754E4,3.48113E5,6.477902E5,3.594905E5,6.44565E4,1.5825E3,0E0,1.208E3,6.4754E4,3.2687875E5,4.4198625E4,5.25631E5,2.3795781E4,2.7580125E5,2.2405734E4,1.512725E4,5.25375E3,2.24275E3,0E0,9.2925E2,2.1146875E3,2.2398E4,7.37075E3,6.8113775E5,6.1718383E4,3.8713875E4,8.0136562E3,1.497005E5,1.136E4,2.7504047E4,9.32966E3,5.542272E4,7.439025E4,2.8345504E4,5.9448438E3,1.647875E4,4.286125E3,3.8669531E3,1.2708906E3,3.2176562E2,0E0,0E0,1.9725E2,9.0634375E2,1.0315312E3,1.0286E4,4.3525E3,1.4845E3,2.2028125E3,0E0,0E0,0E0,0E0,0E0,0E0,0E0,0E0,0E0,0E0,0E0,0E0,0E0,0E0,0E0,0E0,0E0,0E0,0E0,0E0,0E0,0E0,0E0,0E0,0E0,0E0,0E0,0E0,0E0,0E0,0E0,0E0,0E0,0E0,0E0,0E0,0E0,0E0,0E0,0E0,0E0,0E0,0E0,0E0,0E0,0E0,0E0,0E0],"parents":[2147483647,0,0,1,1,2,2,3,3,4,4,5,5,6,6,7,7,8,8,9,9,10,10,11,11,13,13,14,14,15,15,16,16,17,17,18,18,19,19,20,20,21,21,22,22,23,23,25,25,26,26,27,27,28,28,29,29,30,30,31,31,32,32,33,33,34,34,35,35,36,36,37,37,38,38,39,39,40,40,41,41,42,42,43,43,44,44,45,45,48,48,49,49,50,50,51,51,52,52,53,53,54,54],"right_children":[2,4,6,8,10,12,14,16,18,20,22,24,-1,26,28,30,32,34,36,38,40,42,44,46,-1,48,50,52,54,56,58,60,62,64,66,68,70,72,74,76,78,80,82,84,86,88,-1,-1,90,92,94,96,98,100,102,-1,-1,-1,-1,-1,-1,-1,-1,-1,-1,-1,-1,-1,-1,-1,-1,-1,-1,-1,-1,-1,-1,-1,-1,-1,-1,-1,-1,-1,-1,-1,-1,-1,-1,-1,-1,-1,-1,-1,-1,-1,-1,-1,-1,-1,-1,-1,-1],"split_conditions":[1E0,2.01E0,5E2,6.97E1,9.97E0,3.53E1,2E3,7.767E2,7.233E2,6.921E2,7.479E2,7.66E1,7.3795543E0,7.351E2,7.351E2,1.7E1,1.7E1,1E1,1.7E1,7.81E1,1.7E1,1.7E1,1.7E1,6E0,7.7658005E0,9.5E0,6E0,3.09E1,5.5E3,1E1,1.3E1,1E1,1.3E1,6E0,1E1,1E1,1.0271E3,6E0,1.7E1,1E1,1.0904E3,1E1,9E0,1E1,2.173913E-2,3.7037037E-2,8.7170315E0,3.039387E0,5E0,9.677419E-2,1.57E1,9.9E0,2.231E1,4.6816E3,2.2E1,-1.3382135E-1,-3.8707796E-1,-3.5897534E-2,-1.6854753E-1,-3.7751243E-1,-5.3492063E-1,-2.7575535E-1,-3.8189647E-1,-3.732768E-1,3.213944E-1,-1.5425037E-1,-3.155999E-1,-2.0385964E-1,-4.4495296E-1,1.6835682E-1,-1.8469284E-1,2.089097E-1,5.5596024E-1,8.034744E-1,1.0947012E0,3.076764E-1,-4.3620184E-2,6.778243E-1,3.2852784E-1,1.8815964E0,1.6064472E0,2.0600765E0,1.7349609E0,1.3086938E0,9.7726214E-1,2.2495065E0,1.4157046E0,1.900053E0,7.0780435E0,6.3156886E0,5.842684E0,3.9073281E0,5.485002E0,2.5469153E0,5.958654E0,3.3049412E0,4.956292E0,5.390698E0,4.829467E0,4.2756457E0,3.2496603E0,5.0240397E0,3.360476E0],"split_indices":[12,8,10,11,8,7,10,15,15,15,15,15,0,15,15,0,0,3,0,11,0,0,0,0,0,9,5,9,10,0,4,0,4,3,0,0,15,3,0,0,15,0,3,0,14,14,0,0,13,14,7,9,8,15,5,0,0,0,0,0,0,0,0,0,0,0,0,0,0,0,0,0,0,0,0,0,0,0,0,0,0,0,0,0,0,0,0,0,0,0,0,0,0,0,0,0,0,0,0,0,0,0,0],"split_type":[0,0,0,0,0,0,0,0,0,0,0,0,0,0,0,0,0,0,0,0,0,0,0,0,0,0,0,0,0,0,0,0,0,0,0,0,0,0,0,0,0,0,0,0,0,0,0,0,0,0,0,0,0,0,0,0,0,0,0,0,0,0,0,0,0,0,0,0,0,0,0,0,0,0,0,0,0,0,0,0,0,0,0,0,0,0,0,0,0,0,0,0,0,0,0,0,0,0,0,0,0,0,0],"sum_hessian":[9.48616E5,9.35979E5,1.2637E4,8.40318E5,9.5661E4,7.03E2,1.1934E4,6.64269E5,1.76049E5,8.1643E4,1.4018E4,5.86E2,1.17E2,8.27E2,1.1107E4,5.69236E5,9.5033E4,1.47727E5,2.8322E4,6.7995E4,1.3648E4,1.1814E4,2.204E3,4.04E2,1.82E2,6.99E2,1.28E2,9.41E3,1.697E3,4.26262E5,1.42974E5,6.6495E4,2.8538E4,1.28658E5,1.9069E4,1.9852E4,8.47E3,2.005E4,4.7945E4,9.559E3,4.089E3,8.913E3,2.901E3,1.534E3,6.7E2,3.4E1,3.7E2,4E0,6.95E2,4.9E1,7.9E1,7.172E3,2.238E3,1.454E3,2.43E2,2.00614E5,2.25648E5,8.1262E4,6.1712E4,2.5132E4,4.1363E4,1.4863E4,1.3675E4,3.18E3,1.25478E5,6.767E3,1.2302E4,7.791E3,1.2061E4,8.29E2,7.641E3,7.158E3,1.2892E4,3.6372E4,1.1573E4,3.835E3,5.724E3,5.66E2,3.523E3,4.124E3,4.789E3,2.356E3,5.45E2,5.88E2,9.46E2,2.1E1,6.49E2,1E0,3.3E1,3.48E2,3.47E2,3.1E1,1.8E1,3E0,7.6E1,4.6E1,7.126E3,1.981E3,2.57E2,1.423E3,3.1E1,2.26E2,1.7E1],"tree_param":{"num_deleted":"0","num_feature":"16","num_nodes":"103","size_leaf_vector":"1"}},{"base_weights":[3.2882846E-4,-6.298251E-1,4.6670013E1,-1.5257634E0,7.2403283E0,7.381598E1,4.506487E1,-2.3431368E0,1.1448085E0,5.845904E0,1.5360675E1,7.217144E1,8.161129E0,5.385388E1,4.440567E1,-2.7235782E0,-1.2501327E0,1.8794765E0,-2.7142527E0,6.7028494E0,1.680153E0,1.6194794E1,1.088427E1,7.364218E1,6.5084176E0,4.9761417E1,5.5112057E1,4.5309566E1,3.900201E1,-1.5132251E0,-3.7470288E0,-9.156625E-1,-3.002781E0,2.699205E0,-2.3535302E0,-3.2336829E0,-1.497091E0,4.1893826E0,8.04042E0,8.8958293E-1,3.4801595E0,1.672412E1,1.4033985E1,9.94715E0,1.3011832E1,4.3382366E1,7.393308E1,4.2640194E1,5.241406E1,5.8144318E1,5.2287636E1,4.940416E1,4.4740963E1,3.8189598E1,4.3793407E1,-4.222518E-1,-1.1175748E-1,-3.5392794E-1,-4.814279E-1,-6.0234256E-2,-2.1140884E-1,-2.72096E-1,-3.923833E-1,-2.8895348E-1,2.913872E-1,-2.790886E-1,-1.0247946E-1,-1.9216771E-1,-4.0861127E-1,1.3903467E-1,-1.785795E-1,1.8612407E-1,5.2079195E-1,7.398589E-1,1.0067544E0,2.7506799E-1,-3.9088737E-2,1.08711496E-1,4.074412E-1,1.4580148E0,1.7334416E0,8.132947E-1,1.430591E0,1.1780466E0,8.796391E-1,1.3162596E0,4.598111E-2,4.639952E0,1.2639713E0,6.127135E0,7.4862795E0,3.8047357E0,5.31796E0,5.8794723E0,4.7484484E0,2.5439413E0,5.8510222E0,5.369288E0,4.5141425E0,4.9553814E0,2.7388349E0,4.5329914E0,4.2172627E0,4.1334486E0,3.7033443E0,4.4758844E0,2.729343E0],"categories":[],"categories_nodes":[],"categories_segments":[],"categories_sizes":[],"default_left":[0,0,0,0,0,0,0,0,0,0,0,0,0,0,0,0,0,0,0,0,0,0,0,0,0,0,0,0,0,0,0,0,0,0,0,0,0,0,0,0,0,0,0,0,0,0,0,0,0,0,0,0,0,0,0,0,0,0,0,0,0,0,0,0,0,0,0,0,0,0,0,0,0,0,0,0,0,0,0,0,0,0,0,0,0,0,0,0,0,0,0,0,0,0,0,0,0,0,0,0,0,0,0,0,0,0,0],"id":3,"left_children":[1,3,5,7,9,11,13,15,17,19,21,23,-1,25,27,29,31,33,35,37,39,41,43,45,-1,47,49,51,53,55,57,59,61,63,65,67,69,71,73,75,77,79,81,83,85,87,89,91,93,95,97,99,101,103,105,-1,-1,-1,-1,-1,-1,-1,-1,-1,-1,-1,-1,-1,-1,-1,-1,-1,-1,-1,-1,-1,-1,-1,-1,-1,-1,-1,-1,-1,-1,-1,-1,-1,-1,-1,-1,-1,-1,-1,-1,-1,-1,-1,-1,-1,-1,-1,-1,-1,-1,-1,-1],"loss_changes":[2.7897988E7,6.599767E6,5.47354E5,1.8342965E6,1.083111E6,3.135E3,6.6756E4,2.6753675E5,5.583072E5,2.91443E5,5.2169E4,1.35675E3,0E0,1.521E3,5.2488E4,5.912085E5,9.738169E4,5.740344E5,1.9906625E4,2.2761675E5,1.9821152E4,1.32785E4,4.2668594E3,1.02675E3,0E0,1.6375312E3,2.304E3,1.9932E4,4.55175E3,2.3439581E5,5.73205E4,5.2381555E4,6.8996562E3,1.6627988E5,1.5594078E4,2.4678422E4,7.856799E3,5.5765656E4,5.7425E4,2.3071664E4,6.040801E3,1.215825E4,3.6240938E3,3.1347812E3,1.2637344E3,6.280957E1,1.00475E3,9.2941406E2,1.769E3,2.005875E3,9.203125E2,2.43175E3,1.0735E4,3.468625E3,2.3625938E3,0E0,0E0,0E0,0E0,0E0,0E0,0E0,0E0,0E0,0E0,0E0,0E0,0E0,0E0,0E0,0E0,0E0,0E0,0E0,0E0,0E0,0E0,0E0,0E0,0E0,0E0,0E0,0E0,0E0,0E0,0E0,0E0,0E0,0E0,0E0,0E0,0E0,0E0,0E0,0E0,0E0,0E0,0E0,0E0,0E0,0E0,0E0,0E0,0E0,0E0,0E0,0E0],"parents":[2147483647,0,0,1,1,2,2,3,3,4,4,5,5,6,6,7,7,8,8,9,9,10,10,11,11,13,13,14,14,15,15,16,16,17,17,18,18,19,19,20,20,21,21,22,22,23,23,25,25,26,26,27,27,28,28,29,29,30,30,31,31,32,32,33,33,34,34,35,35,36,36,37,37,38,38,39,39,40,40,41,41,42,42,43,43,44,44,45,45,46,46,47,47,48,48,49,49,50,50,51,51,52,52,53,53,54,54],"right_children":[2,4,6,8,10,12,14,16,18,20,22,24,-1,26,28,30,32,34,36,38,40,42,44,46,-1,48,50,52,54,56,58,60,62,64,66,68,70,72,74,76,78,80,82,84,86,88,90,92,94,96,98,100,102,104,106,-1,-1,-1,-1,-1,-1,-1,-1,-1,-1,-1,-1,-1,-1,-1,-1,-1,-1,-1,-1,-1,-1,-1,-1,-1,-1,-1,-1,-1,-1,-1,-1,-1,-1,-1,-1,-1,-1,-1,-1,-1,-1,-1,-1,-1,-1,-1,-1,-1,-1,-1,-1],"split_conditions":[1E0,2.01E0,5E2,6.79E1,9.97E0,3.2258064E-1,2E3,1.7E1,7.233E2,6.743E2,7.479E2,3.53E1,8.161129E0,7E0,8.272E2,1E1,8.641E2,1E1,1.7E1,8.03E1,1.7E1,9E0,1.7E1,2.7777778E-2,6.5084176E0,6E0,8E0,1.414E1,5.5E3,6E0,5.435E2,2.2E1,2.2E1,6E0,1.7E1,1E1,8.452E2,6E0,1.7E1,1E1,2.19E1,7E0,6E0,1E1,2.2E1,2E1,6E0,1.8E3,1.4705883E-1,1.4E1,5.834E2,4.58E1,9E0,1E1,2.2E1,-4.222518E-1,-1.1175748E-1,-3.5392794E-1,-4.814279E-1,-6.0234256E-2,-2.1140884E-1,-2.72096E-1,-3.923833E-1,-2.8895348E-1,2.913872E-1,-2.790886E-1,-1.0247946E-1,-1.9216771E-1,-4.0861127E-1,1.3903467E-1,-1.785795E-1,1.8612407E-1,5.2079195E-1,7.398589E-1,1.0067544E0,2.7506799E-1,-3.9088737E-2,1.08711496E-1,4.074412E-1,1.4580148E0,1.7334416E0,8.132947E-1,1.430591E0,1.1780466E0,8.796391E-1,1.3162596E0,4.598111E-2,4.639952E0,1.2639713E0,6.127135E0,7.4862795E0,3.8047357E0,5.31796E0,5.8794723E0,4.7484484E0,2.5439413E0,5.8510222E0,5.369288E0,4.5141425E0,4.9553814E0,2.7388349E0,4.5329914E0,4.2172627E0,4.1334486E0,3.7033443E0,4.4758844E0,2.729343E0],"split_indices":[12,8,10,11,8,14,10,0,15,15,15,7,0,3,15,0,15,3,0,11,0,3,0,14,0,5,3,8,10,0,15,4,4,3,0,0,15,3,0,0,7,3,0,0,0,0,0,6,14,9,15,9,3,0,5,0,0,0,0,0,0,0,0,0,0,0,0,0,0,0,0,0,0,0,0,0,0,0,0,0,0,0,0,0,0,0,0,0,0,0,0,0,0,0,0,0,0,0,0,0,0,0,0,0,0,0,0],"split_type":[0,0,0,0,0,0,0,0,0,0,0,0,0,0,0,0,0,0,0,0,0,0,0,0,0,0,0,0,0,0,0,0,0,0,0,0,0,0,0,0,0,0,0,0,0,0,0,0,0,0,0,0,0,0,0,0,0,0,0,0,0,0,0,0,0,0,0,0,0,0,0,0,0,0,0,0,0,0,0,0,0,0,0,0,0,0,0,0,0,0,0,0,0,0,0,0,0,0,0,0,0,0,0,0,0,0,0],"sum_hessian":[9.48616E5,9.35979E5,1.2637E4,8.40318E5,9.5661E4,7.03E2,1.1934E4,6.43396E5,1.96922E5,8.1643E4,1.4018E4,5.89E2,1.14E2,8.27E2,1.1107E4,4.77271E5,1.66125E5,1.65429E5,3.1493E4,6.7713E4,1.393E4,1.1814E4,2.204E3,4.8E2,1.09E2,2.04E2,6.23E2,9.509E3,1.598E3,2.1867E5,2.58601E5,1.39504E5,2.6621E4,1.38591E5,2.6838E4,2.2072E4,9.421E3,2.352E4,4.4193E4,9.68E3,4.25E3,9.484E3,2.33E3,1.534E3,6.7E2,6E0,4.74E2,6E1,1.44E2,2.91E2,3.32E2,1.149E3,8.36E3,1.374E3,2.24E2,2.7863E4,1.90807E5,2.16468E5,4.2133E4,1.10592E5,2.8912E4,2.0387E4,6.234E3,5.126E3,1.33465E5,2.0191E4,6.647E3,8.694E3,1.3378E4,8.56E2,8.565E3,7.159E3,1.6361E4,3.3569E4,1.0624E4,3.945E3,5.735E3,8.46E2,3.404E3,2.107E3,7.377E3,1.04E2,2.226E3,5.88E2,9.46E2,6.62E2,8E0,5E0,1E0,3.7E1,4.37E2,4.5E1,1.5E1,5.8E1,8.6E1,4E0,2.87E2,2.72E2,6E1,1.14E3,9E0,6.787E3,1.573E3,3.6E2,1.014E3,2.1E2,1.4E1],"tree_param":{"num_deleted":"0","num_feature":"16","num_nodes":"107","size_leaf_vector":"1"}},{"base_weights":[4.143878E-4,-5.668334E-1,4.201122E1,-1.3731911E0,6.5164213E0,6.648294E1,4.0564205E1,-2.135949E0,9.589456E-1,5.261353E0,1.3825239E1,6.4998405E1,7.352113E0,4.851442E1,3.9967937E1,-1.8922439E0,-3.5376866E0,1.6745014E0,-2.3847578E0,5.996528E0,1.3268541E0,1.4575774E1,9.797395E0,6.6638756E1,5.9142773E1,4.488162E1,4.9630142E1,4.0811733E1,3.5267735E1,-2.2395384E0,-8.510797E-1,-3.9538465E0,-2.586328E0,2.4481463E0,-2.0903213E0,-1.4527881E0,-2.8597975E0,2.3100462E0,6.744382E0,7.5032914E-1,2.7407877E0,1.39894285E1,1.6371817E1,8.953776E0,1.1712679E1,5.676275E1,6.814695E1,2.1391387E0,5.982324E1,2.8076561E1,4.568976E1,5.2358635E1,4.708855E1,4.0045216E1,4.3249172E1,4.0411777E1,3.4530415E1,-1.13105714E-1,-3.2194054E-1,-2.3672497E-1,-6.4168766E-2,-3.3333534E-1,-4.3509218E-1,-7.439625E-2,-2.744339E-1,-2.5414544E-1,2.679174E-1,-2.7283636E-1,-6.861458E-2,-4.551528E-1,-9.755436E-2,-3.773851E-1,-1.4092666E-1,1.5537545E-1,4.6452624E-1,6.9840986E-1,2.2416724E-2,2.5447413E-1,-3.6041852E-2,9.083406E-2,3.3638096E-1,1.5322839E0,1.2838216E0,1.6870321E0,1.4189856E0,1.0604419E0,7.9176813E-1,1.6489638E0,1.1284745E0,5.8267417E0,2.6752255E0,5.2348957E0,6.8818526E0,6.7317467E0,5.4914727E0,7.1507215E-1,2.9328847E0,4.7210636E0,3.4046762E0,2.3404257E0,5.2679515E0,4.834326E0,4.070128E0,3.8440416E0,4.1046686E0,3.7072659E0,4.362163E0,5.1872644E0,3.8625257E0,3.518196E0,3.1337335E0],"categories":[],"categories_nodes":[],"categories_segments":[],"categories_sizes":[],"default_left":[0,0,0,0,0,0,0,0,0,0,0,0,0,0,0,0,0,0,0,0,0,0,0,0,0,0,0,0,0,0,0,0,0,0,0,0,0,0,0,0,0,0,0,0,0,0,0,0,0,0,0,0,0,0,0,0,0,0,0,0,0,0,0,0,0,0,0,0,0,0,0,0,0,0,0,0,0,0,0,0,0,0,0,0,0,0,0,0,0,0,0,0,0,0,0,0,0,0,0,0,0,0,0,0,0,0,0,0,0,0,0],"id":4,"left_children":[1,3,5,7,9,11,13,15,17,19,21,23,-1,25,27,29,31,33,35,37,39,41,43,45,47,49,51,53,55,57,59,61,63,65,67,69,71,73,75,77,79,81,83,85,87,89,91,-1,93,95,97,99,101,103,105,107,109,-1,-1,-1,-1,-1,-1,-1,-1,-1,-1,-1,-1,-1,-1,-1,-1,-1,-1,-1,-1,-1,-1,-1,-1,-1,-1,-1,-1,-1,-1,-1,-1,-1,-1,-1,-1,-1,-1,-1,-1,-1,-1,-1,-1,-1,-1,-1,-1,-1,-1,-1,-1,-1,-1],"loss_changes":[2.2606072E7,5.3459875E6,4.44826E5,1.4948078E6,8.77442E5,2.577E3,5.4638E4,2.16307E5,4.9551994E5,2.36151E5,4.2237E4,1.726E3,0E0,1.1285E3,4.2616E4,1.9505238E5,3.71205E4,4.968892E5,1.615875E4,1.8963475E5,1.0476932E4,1.22135E4,3.4578906E3,2.879125E3,2.2653125E3,1.50125E3,1.861875E3,1.5851E4,5.04475E3,4.3935525E5,4.283525E4,1.606E4,8.307219E3,1.6313731E5,2.605246E4,1.8226904E4,3.205539E4,2.0484887E4,8.938375E4,1.820426E4,4.247324E3,1.3486625E4,2.917125E3,2.5412266E3,1.1855938E3,1.4215E3,5.14E2,0E0,1.2693125E3,1.0473828E2,1.8279062E3,1.48E3,7.010625E2,9.951E3,3.5335E3,2.2347812E3,2.0015E3,0E0,0E0,0E0,0E0,0E0,0E0,0E0,0E0,0E0,0E0,0E0,0E0,0E0,0E0,0E0,0E0,0E0,0E0,0E0,0E0,0E0,0E0,0E0,0E0,0E0,0E0,0E0,0E0,0E0,0E0,0E0,0E0,0E0,0E0,0E0,0E0,0E0,0E0,0E0,0E0,0E0,0E0,0E0,0E0,0E0,0E0,0E0,0E0,0E0,0E0,0E0,0E0,0E0,0E0],"parents":[2147483647,0,0,1,1,2,2,3,3,4,4,5,5,6,6,7,7,8,8,9,9,10,10,11,11,13,13,14,14,15,15,16,16,17,17,18,18,19,19,20,20,21,21,22,22,23,23,24,24,25,25,26,26,27,27,28,28,29,29,30,30,31,31,32,32,33,33,34,34,35,35,36,36,37,37,38,38,39,39,40,40,41,41,42,42,43,43,44,44,45,45,46,46,48,48,49,49,50,50,51,51,52,52,53,53,54,54,55,55,56,56],"right_children":[2,4,6,8,10,12,14,16,18,20,22,24,-1,26,28,30,32,34,36,38,40,42,44,46,48,50,52,54,56,58,60,62,64,66,68,70,72,74,76,78,80,82,84,86,88,90,92,-1,94,96,98,100,102,104,106,108,110,-1,-1,-1,-1,-1,-1,-1,-1,-1,-1,-1,-1,-1,-1,-1,-1,-1,-1,-1,-1,-1,-1,-1,-1,-1,-1,-1,-1,-1,-1,-1,-1,-1,-1,-1,-1,-1,-1,-1,-1,-1,-1,-1,-1,-1,-1,-1,-1,-1,-1,-1,-1,-1,-1],"split_conditions":[1E0,2.01E0,5E2,6.71E1,9.97E0,3.2258064E-1,2E3,7.351E2,1E1,7.615E2,7.479E2,2.1E1,7.352113E0,7E0,7.351E2,1.7E1,1.7E1,6.743E2,1E1,7.03E1,1.7E1,1.7E1,1.7E1,7.66E1,3.7037037E-2,4E-2,8E0,3.09E1,1.444E1,1E1,4E0,1E1,3.7037037E-2,6E0,1.7E1,6E0,1.7E1,1.7E1,1E1,1E1,7.59E1,1E1,9E0,1E1,3.2258064E-2,7.59E1,1E0,2.1391387E0,9E0,5E0,1E1,1.4E1,5.834E2,8.51E1,2.7E3,2.54E1,2.4E1,-1.13105714E-1,-3.2194054E-1,-2.3672497E-1,-6.4168766E-2,-3.3333534E-1,-4.3509218E-1,-7.439625E-2,-2.744339E-1,-2.5414544E-1,2.679174E-1,-2.7283636E-1,-6.861458E-2,-4.551528E-1,-9.755436E-2,-3.773851E-1,-1.4092666E-1,1.5537545E-1,4.6452624E-1,6.9840986E-1,2.2416724E-2,2.5447413E-1,-3.6041852E-2,9.083406E-2,3.3638096E-1,1.5322839E0,1.2838216E0,1.6870321E0,1.4189856E0,1.0604419E0,7.9176813E-1,1.6489638E0,1.1284745E0,5.8267417E0,2.6752255E0,5.2348957E0,6.8818526E0,6.7317467E0,5.4914727E0,7.1507215E-1,2.9328847E0,4.7210636E0,3.4046762E0,2.3404257E0,5.2679515E0,4.834326E0,4.070128E0,3.8440416E0,4.1046686E0,3.7072659E0,4.362163E0,5.1872644E0,3.8625257E0,3.518196E0,3.1337335E0],"split_indices":[12,8,10,11,8,14,10,15,3,15,15,5,0,3,15,0,0,15,0,11,0,0,0,11,14,14,3,9,8,0,4,0,14,3,0,0,0,0,3,0,11,0,3,0,14,11,5,0,4,4,13,9,15,11,10,7,4,0,0,0,0,0,0,0,0,0,0,0,0,0,0,0,0,0,0,0,0,0,0,0,0,0,0,0,0,0,0,0,0,0,0,0,0,0,0,0,0,0,0,0,0,0,0,0,0,0,0,0,0,0,0],"split_type":[0,0,0,0,0,0,0,0,0,0,0,0,0,0,0,0,0,0,0,0,0,0,0,0,0,0,0,0,0,0,0,0,0,0,0,0,0,0,0,0,0,0,0,0,0,0,0,0,0,0,0,0,0,0,0,0,0,0,0,0,0,0,0,0,0,0,0,0,0,0,0,0,0,0,0,0,0,0,0,0,0,0,0,0,0,0,0,0,0,0,0,0,0,0,0,0,0,0,0,0,0,0,0,0,0,0,0,0,0,0,0],"sum_hessian":[9.48616E5,9.35979E5,1.2637E4,8.40318E5,9.5661E4,7.03E2,1.1934E4,6.33216E5,2.07102E5,8.1643E4,1.4018E4,5.89E2,1.14E2,8.27E2,1.1107E4,5.39433E5,9.3783E4,1.70595E5,3.6507E4,6.8789E4,1.2854E4,1.1814E4,2.204E3,4.52E2,1.37E2,2.04E2,6.23E2,9.41E3,1.697E3,4.04504E5,1.34929E5,6.5241E4,2.8542E4,1.41515E5,2.908E4,1.2327E4,2.418E4,1.1602E4,5.7187E4,9.132E3,3.722E3,8.913E3,2.901E3,1.534E3,6.7E2,6.5E1,3.87E2,3E0,1.34E2,1.1E1,1.93E2,2.91E2,3.32E2,7.172E3,2.238E3,2.06E2,1.491E3,1.89797E5,2.14707E5,1.6372E4,1.18557E5,2.5462E4,3.9779E4,2.255E3,2.6287E4,6.262E3,1.35253E5,1.9994E4,9.086E3,1.644E3,1.0683E4,1.4832E4,9.348E3,8.765E3,2.837E3,5.5159E4,2.028E3,3.491E3,5.641E3,9.45E2,2.777E3,4.124E3,4.789E3,2.356E3,5.45E2,5.88E2,9.46E2,5.2E1,6.18E2,6.1E1,4E0,1.9E1,3.68E2,4.8E1,8.6E1,1E0,1E1,1.68E2,2.5E1,4E0,2.87E2,2.72E2,6E1,2.771E3,4.401E3,1.33E2,2.105E3,2.4E1,1.82E2,1.23E3,2.61E2],"tree_param":{"num_deleted":"0","num_feature":"16","num_nodes":"111","size_leaf_vector":"1"}},{"base_weights":[4.905869E-4,-5.101401E-1,3.7818195E1,-1.235876E0,5.86491E0,5.989478E1,3.6512814E1,-1.7690672E0,1.4883122E0,4.735242E0,1.2443468E1,6.1915848E1,5.5257786E1,4.369714E1,3.5974E1,-1.5277234E0,-3.1533918E0,2.1748745E0,-1.8817762E0,5.433203E0,1.3423404E0,1.3118698E1,8.819755E0,6.063131E1,7.459423E1,5.5374093E0,1.4718541E0,4.6109123E1,4.2126217E1,3.6706287E1,3.1596245E1,-1.8027443E0,-1.4958477E-1,-3.5183115E0,-2.3146713E0,3.084709E0,-4.152833E-1,-2.4334974E0,-6.591187E-1,3.3486016E0,6.5425506E0,6.963521E-1,2.8131635E0,8.60765E0,1.3314781E1,8.059606E0,1.054555E1,4.357666E1,6.133466E1,7.5617003E0,1.7353138E0,2.9016432E1,4.6924015E1,3.6714046E1,4.359779E1,3.5991936E1,3.897012E1,3.0928364E1,3.5537308E1,-2.1144338E-1,-8.695576E-2,1.3499124E-1,-1.9237383E-1,-2.9111868E-1,-3.908449E-1,-3.6588815E-1,-2.1081813E-1,7.209534E-2,3.7535354E-1,1.5634496E-2,-1.935162E-1,-1.3140266E-1,-3.186406E-1,2.2045703E-1,-1.1323001E-1,4.0417466E-1,3.4054276E-2,8.049161E-1,5.718761E-1,2.1823369E-1,-3.260314E-2,5.136525E-1,2.3323973E-1,1.1944207E0,7.1362877E-1,1.4034032E0,1.1918714E0,8.40257E-1,3.831178E-1,1.0918764E0,5.691857E-1,8.13529E-1,4.494197E0,7.1716194E0,5.981458E0,4.0476203E0,1.6946976E0,2.0406177E0,4.7395787E0,2.429839E0,3.860059E0,4.3814607E0,1.1287882E0,2.612746E0,3.6130598E0,3.5522733E0,3.9576147E0,3.3763676E0,2.9889472E0,4.073711E0,3.24447E0],"categories":[],"categories_nodes":[],"categories_segments":[],"categories_sizes":[],"default_left":[0,0,0,0,0,0,0,0,0,0,0,0,0,0,0,0,0,0,0,0,0,0,0,0,0,0,0,0,0,0,0,0,0,0,0,0,0,0,0,0,0,0,0,0,0,0,0,0,0,0,0,0,0,0,0,0,0,0,0,0,0,0,0,0,0,0,0,0,0,0,0,0,0,0,0,0,0,0,0,0,0,0,0,0,0,0,0,0,0,0,0,0,0,0,0,0,0,0,0,0,0,0,0,0,0,0,0,0,0,0,0],"id":5,"left_children":[1,3,5,7,9,11,13,15,17,19,21,23,25,27,29,31,33,35,37,39,41,43,45,47,49,-1,-1,51,53,55,57,59,61,63,65,67,69,71,73,75,77,79,81,83,85,87,89,91,93,-1,-1,95,97,99,101,103,105,107,109,-1,-1,-1,-1,-1,-1,-1,-1,-1,-1,-1,-1,-1,-1,-1,-1,-1,-1,-1,-1,-1,-1,-1,-1,-1,-1,-1,-1,-1,-1,-1,-1,-1,-1,-1,-1,-1,-1,-1,-1,-1,-1,-1,-1,-1,-1,-1,-1,-1,-1,-1,-1],"loss_changes":[1.831865E7,4.3304145E6,3.6202E5,1.2205772E6,7.10862E5,3.17625E3,4.4629E4,2.3478925E5,3.18264E5,1.9333512E5,3.41865E4,3.327E3,2.363125E2,1.195125E3,3.445E4,2.2681838E5,3.1924E4,2.69294E5,1.5702289E4,1.5656988E5,1.3234367E4,1.033625E4,2.8076406E3,2.64125E3,1.0295781E3,0E0,0E0,3.0398125E3,2.485125E3,1.3977E4,3.10975E3,1.4510562E5,2.6486053E5,1.7208062E4,8.7728125E3,1.3369119E5,2.580904E4,1.3516117E4,9.81302E3,4.9040406E4,5.4804625E4,1.4708534E4,4.7363594E3,2.3448555E3,1.1200375E4,2.193875E3,1.1533438E3,6.5053906E2,2.385625E3,0E0,0E0,1.665375E3,2.786E3,1.7790938E3,2.2935E3,8.962E3,3.3345E3,3.041E3,2.2965E3,0E0,0E0,0E0,0E0,0E0,0E0,0E0,0E0,0E0,0E0,0E0,0E0,0E0,0E0,0E0,0E0,0E0,0E0,0E0,0E0,0E0,0E0,0E0,0E0,0E0,0E0,0E0,0E0,0E0,0E0,0E0,0E0,0E0,0E0,0E0,0E0,0E0,0E0,0E0,0E0,0E0,0E0,0E0,0E0,0E0,0E0,0E0,0E0,0E0,0E0,0E0,0E0],"parents":[2147483647,0,0,1,1,2,2,3,3,4,4,5,5,6,6,7,7,8,8,9,9,10,10,11,11,12,12,13,13,14,14,15,15,16,16,17,17,18,18,19,19,20,20,21,21,22,22,23,23,24,24,27,27,28,28,29,29,30,30,31,31,32,32,33,33,34,34,35,35,36,36,37,37,38,38,39,39,40,40,41,41,42,42,43,43,44,44,45,45,46,46,47,47,48,48,51,51,52,52,53,53,54,54,55,55,56,56,57,57,58,58],"right_children":[2,4,6,8,10,12,14,16,18,20,22,24,26,28,30,32,34,36,38,40,42,44,46,48,50,-1,-1,52,54,56,58,60,62,64,66,68,70,72,74,76,78,80,82,84,86,88,90,92,94,-1,-1,96,98,100,102,104,106,108,110,-1,-1,-1,-1,-1,-1,-1,-1,-1,-1,-1,-1,-1,-1,-1,-1,-1,-1,-1,-1,-1,-1,-1,-1,-1,-1,-1,-1,-1,-1,-1,-1,-1,-1,-1,-1,-1,-1,-1,-1,-1,-1,-1,-1,-1,-1,-1,-1,-1,-1,-1,-1],"split_conditions":[1E0,2.01E0,5E2,7.34E1,9.97E0,7.66E1,2E3,7.351E2,6.832E2,6.743E2,7.479E2,1.8E1,2.2E1,1E1,8.272E2,6.38E1,1.7E1,9E0,1.7E1,8.03E1,1.7E1,6E0,1.7E1,1E0,3.024E3,5.5374093E0,1.4718541E0,1.44E1,1.2E1,3.09E1,5.5E3,1.7E1,1E1,1E1,4E0,7E0,1E1,1E1,8.091E2,1E1,1E1,1E1,1.0904E3,7E0,3.28E1,2.1885E3,2.8E1,2E0,4E0,7.5617003E0,1.7353138E0,6E0,1.72E1,5E0,2.1885E3,1.22E1,3.8E3,1E1,3.03E1,-2.1144338E-1,-8.695576E-2,1.3499124E-1,-1.9237383E-1,-2.9111868E-1,-3.908449E-1,-3.6588815E-1,-2.1081813E-1,7.209534E-2,3.7535354E-1,1.5634496E-2,-1.935162E-1,-1.3140266E-1,-3.186406E-1,2.2045703E-1,-1.1323001E-1,4.0417466E-1,3.4054276E-2,8.049161E-1,5.718761E-1,2.1823369E-1,-3.260314E-2,5.136525E-1,2.3323973E-1,1.1944207E0,7.1362877E-1,1.4034032E0,1.1918714E0,8.40257E-1,3.831178E-1,1.0918764E0,5.691857E-1,8.13529E-1,4.494197E0,7.1716194E0,5.981458E0,4.0476203E0,1.6946976E0,2.0406177E0,4.7395787E0,2.429839E0,3.860059E0,4.3814607E0,1.1287882E0,2.612746E0,3.6130598E0,3.5522733E0,3.9576147E0,3.3763676E0,2.9889472E0,4.073711E0,3.24447E0],"split_indices":[12,8,10,11,8,15,10,15,15,15,15,0,0,0,15,11,0,3,0,11,0,0,0,5,6,0,0,9,0,9,10,0,3,0,4,3,3,0,15,3,0,0,15,5,7,15,4,3,5,0,0,5,7,5,15,9,10,0,7,0,0,0,0,0,0,0,0,0,0,0,0,0,0,0,0,0,0,0,0,0,0,0,0,0,0,0,0,0,0,0,0,0,0,0,0,0,0,0,0,0,0,0,0,0,0,0,0,0,0,0,0],"split_type":[0,0,0,0,0,0,0,0,0,0,0,0,0,0,0,0,0,0,0,0,0,0,0,0,0,0,0,0,0,0,0,0,0,0,0,0,0,0,0,0,0,0,0,0,0,0,0,0,0,0,0,0,0,0,0,0,0,0,0,0,0,0,0,0,0,0,0,0,0,0,0,0,0,0,0,0,0,0,0,0,0,0,0,0,0,0,0,0,0,0,0,0,0,0,0,0,0,0,0,0,0,0,0,0,0,0,0,0,0,0,0],"sum_hessian":[9.48616E5,9.35979E5,1.2637E4,8.40318E5,9.5661E4,7.03E2,1.1934E4,7.02769E5,1.37549E5,8.1643E4,1.4018E4,4.81E2,2.22E2,8.27E2,1.1107E4,5.98439E5,1.0433E5,1.1427E5,2.3279E4,6.7713E4,1.393E4,1.1814E4,2.204E3,4.42E2,3.9E1,2.21E2,1E0,3.15E2,5.12E2,9.509E3,1.598E3,4.98882E5,9.9557E4,7.2697E4,3.1633E4,8.4565E4,2.9705E4,1.604E4,7.239E3,2.352E4,4.4193E4,9.68E3,4.25E3,4.94E2,1.132E4,1.534E3,6.7E2,2E1,4.22E2,3.8E1,1E0,1.6E1,2.99E2,1.15E2,3.97E2,7.241E3,2.268E3,1.374E3,2.24E2,3.73972E5,1.2491E5,5.3955E4,4.5602E4,2.8443E4,4.4254E4,4.21E3,2.7423E4,1.8651E4,6.5914E4,2.1587E4,8.118E3,6.451E3,9.589E3,1.026E3,6.213E3,1.9115E4,4.405E3,1.5619E4,2.8574E4,3.945E3,5.735E3,7.27E2,3.523E3,1.49E2,3.45E2,7.465E3,3.855E3,1.418E3,1.16E2,6.21E2,4.9E1,1E0,1.9E1,4.8E1,3.74E2,7E0,9E0,6E0,2.93E2,1.7E1,9.8E1,3.94E2,3E0,1.03E2,7.138E3,3.48E2,1.92E3,3.6E2,1.014E3,7.9E1,1.45E2],"tree_param":{"num_deleted":"0","num_feature":"16","num_nodes":"111","size_leaf_vector":"1"}},{"base_weights":[5.4156024E-4,-4.5911717E-1,3.404322E1,-1.1122904E0,5.278525E0,5.3954685E1,3.2865868E1,-1.767834E0,6.8619186E-1,4.2863855E0,1.1364152E1,5.5781853E1,4.9763435E1,3.93568E1,3.2379066E1,-1.0915586E0,-2.1157763E0,1.357956E0,-1.9350997E0,4.918624E0,1.246965E0,1.1967826E1,8.116694E0,5.460985E1,6.736723E1,5.0932564E1,4.119356E1,3.6212543E1,4.03267E1,3.3063416E1,2.8567074E1,-3.5093966E0,-7.3926014E-1,-2.8554614E0,-9.666226E-1,1.9706821E0,-1.7049589E0,-1.132689E0,-2.3467672E0,1.7728939E0,5.552046E0,6.441837E-1,2.6041825E0,1.2436987E1,1.008464E1,7.4639125E0,9.589328E0,3.9471745E1,5.523229E1,6.824919E0,1.6485481E0,4.6316666E1,5.40225E1,1.0504119E1,4.648775E1,3.0079811E1,3.8542778E1,3.662357E1,4.1851456E1,3.3615017E1,3.0626032E1,2.7754576E1,3.2019146E1,-3.3023345E-1,-4.6306816E-1,-3.7541285E-2,-2.6729804E-1,-2.7114925E-1,-3.50471E-1,-4.6376746E-2,-1.6121118E-1,-2.366442E-1,2.2255264E-1,-2.1776417E-1,-6.34242E-2,-3.8605317E-1,-7.08878E-2,-3.1313848E-1,-1.0736082E-1,3.3814275E-1,8.302766E-2,6.1447173E-1,3.3770266E-1,1.9624045E-1,-2.7255464E-2,5.095187E-2,3.126801E-1,1.0591663E0,1.296737E0,1.0281665E0,3.379266E-1,8.308522E-1,5.7060695E-1,1.1363529E0,8.409234E-1,1.6848377E0,4.2306285E0,5.7851458E0,5.0473228E0,4.6769238E0,4.3767092E-1,2.226281E0,5.5020366E0,-7.5935363E-3,1.581313E0,4.7899823E0,4.886944E-1,2.6068254E0,3.9733052E0,4.4221067E0,3.4248967E0,3.7523968E0,2.0140646E0,4.104909E0,5.4439545E0,3.2838151E0,3.6142316E0,2.5030408E0,3.139033E0,2.794098E0,1.7364992E0,3.3352482E0,2.4582858E0],"categories":[],"categories_nodes":[],"categories_segments":[],"categories_sizes":[],"default_left":[0,0,0,0,0,0,0,0,0,0,0,0,0,0,0,0,0,0,0,0,0,0,0,0,0,0,0,0,0,0,0,0,0,0,0,0,0,0,0,0,0,0,0,0,0,0,0,0,0,0,0,0,0,0,0,0,0,0,0,0,0,0,0,0,0,0,0,0,0,0,0,0,0,0,0,0,0,0,0,0,0,0,0,0,0,0,0,0,0,0,0,0,0,0,0,0,0,0,0,0,0,0,0,0,0,0,0,0,0,0,0,0,0,0,0,0,0,0,0,0,0,0,0],"id":6,"left_children":[1,3,5,7,9,11,13,15,17,19,21,23,25,27,29,31,33,35,37,39,41,43,45,47,49,51,53,55,57,59,61,63,65,67,69,71,73,75,77,79,81,83,85,87,89,91,93,95,97,-1,-1,99,101,103,105,107,109,111,113,115,117,119,121,-1,-1,-1,-1,-1,-1,-1,-1,-1,-1,-1,-1,-1,-1,-1,-1,-1,-1,-1,-1,-1,-1,-1,-1,-1,-1,-1,-1,-1,-1,-1,-1,-1,-1,-1,-1,-1,-1,-1,-1,-1,-1,-1,-1,-1,-1,-1,-1,-1,-1,-1,-1,-1,-1,-1,-1,-1,-1,-1,-1],"loss_changes":[1.4843988E7,3.507754E6,2.94497E5,9.9072344E5,5.775385E5,2.6155E3,3.6438E4,1.4490888E5,3.9527838E5,1.5805625E5,2.618975E4,2.86575E3,1.361875E2,1.06475E3,2.8034E4,1.78206E5,3.4563912E5,3.3534462E5,1.5123641E4,1.356645E5,1.1586783E4,9.862875E3,1.9519844E3,1.994E3,6.698906E2,2.363125E2,4.71091E3,1.7702188E3,1.9905E3,1.1622E4,3.87375E3,6.1622188E3,1.2847811E5,2.3114625E4,5.1687234E4,1.6458088E5,1.5074102E4,1.795018E4,3.0228656E4,1.7303457E4,7.3040125E4,1.1855562E4,4.766967E3,8.71625E3,2.9510156E3,2.1246875E3,1.250707E3,6.338711E2,2.352625E3,0E0,0E0,1.3896875E3,2.2295E3,3.3821857E2,1.3519844E3,1.3264258E3,2.0207969E3,2.0640625E3,2.1589375E3,1.3861E4,6.689875E3,2.19125E3,2.3231875E3,0E0,0E0,0E0,0E0,0E0,0E0,0E0,0E0,0E0,0E0,0E0,0E0,0E0,0E0,0E0,0E0,0E0,0E0,0E0,0E0,0E0,0E0,0E0,0E0,0E0,0E0,0E0,0E0,0E0,0E0,0E0,0E0,0E0,0E0,0E0,0E0,0E0,0E0,0E0,0E0,0E0,0E0,0E0,0E0,0E0,0E0,0E0,0E0,0E0,0E0,0E0,0E0,0E0,0E0,0E0,0E0,0E0,0E0,0E0,0E0],"parents":[2147483647,0,0,1,1,2,2,3,3,4,4,5,5,6,6,7,7,8,8,9,9,10,10,11,11,12,12,13,13,14,14,15,15,16,16,17,17,18,18,19,19,20,20,21,21,22,22,23,23,24,24,25,25,26,26,27,27,28,28,29,29,30,30,31,31,32,32,33,33,34,34,35,35,36,36,37,37,38,38,39,39,40,40,41,41,42,42,43,43,44,44,45,45,46,46,47,47,48,48,51,51,52,52,53,53,54,54,55,55,56,56,57,57,58,58,59,59,60,60,61,61,62,62],"right_children":[2,4,6,8,10,12,14,16,18,20,22,24,26,28,30,32,34,36,38,40,42,44,46,48,50,52,54,56,58,60,62,64,66,68,70,72,74,76,78,80,82,84,86,88,90,92,94,96,98,-1,-1,100,102,104,106,108,110,112,114,116,118,120,122,-1,-1,-1,-1,-1,-1,-1,-1,-1,-1,-1,-1,-1,-1,-1,-1,-1,-1,-1,-1,-1,-1,-1,-1,-1,-1,-1,-1,-1,-1,-1,-1,-1,-1,-1,-1,-1,-1,-1,-1,-1,-1,-1,-1,-1,-1,-1,-1,-1,-1,-1,-1,-1,-1,-1,-1,-1,-1,-1,-1],"split_conditions":[1E0,2.01E0,5E2,6.58E1,1.01E1,7.66E1,2E3,1E1,1E1,6.66E2,7.479E2,1.8E1,6E0,7E0,7.351E2,6E0,1.7E1,6.921E2,1E1,7.03E1,1.7E1,9E0,1.7E1,1E0,3.024E3,3E0,2.057E2,6E0,1.2E3,9E0,3.3E1,3.227E2,1.551E2,4.581E2,1.3E1,6E0,1.7E1,6E0,1.7E1,1E1,9E0,1E1,2.19E1,7E0,1E1,1.4507E3,7.4074075E-2,1.66E1,1.9E1,6.824919E0,1.6485481E0,1.4E1,2.173913E-2,1.6E1,2.58E3,1.8E3,1.4705883E-1,2.8E1,1.6E1,1.7E1,2.41E1,4.347826E-1,9.73E1,-3.3023345E-1,-4.6306816E-1,-3.7541285E-2,-2.6729804E-1,-2.7114925E-1,-3.50471E-1,-4.6376746E-2,-1.6121118E-1,-2.366442E-1,2.2255264E-1,-2.1776417E-1,-6.34242E-2,-3.8605317E-1,-7.08878E-2,-3.1313848E-1,-1.0736082E-1,3.3814275E-1,8.302766E-2,6.1447173E-1,3.3770266E-1,1.9624045E-1,-2.7255464E-2,5.095187E-2,3.126801E-1,1.0591663E0,1.296737E0,1.0281665E0,3.379266E-1,8.308522E-1,5.7060695E-1,1.1363529E0,8.409234E-1,1.6848377E0,4.2306285E0,5.7851458E0,5.0473228E0,4.6769238E0,4.3767092E-1,2.226281E0,5.5020366E0,-7.5935363E-3,1.581313E0,4.7899823E0,4.886944E-1,2.6068254E0,3.9733052E0,4.4221067E0,3.4248967E0,3.7523968E0,2.0140646E0,4.104909E0,5.4439545E0,3.2838151E0,3.6142316E0,2.5030408E0,3.139033E0,2.794098E0,1.7364992E0,3.3352482E0,2.4582858E0],"split_indices":[12,8,10,11,8,15,10,0,3,15,15,0,1,3,15,0,0,15,0,11,0,3,0,5,6,1,15,5,10,3,9,15,15,15,4,3,0,0,0,0,3,0,7,3,3,15,14,7,5,0,0,13,14,5,6,6,14,5,13,0,7,14,11,0,0,0,0,0,0,0,0,0,0,0,0,0,0,0,0,0,0,0,0,0,0,0,0,0,0,0,0,0,0,0,0,0,0,0,0,0,0,0,0,0,0,0,0,0,0,0,0,0,0,0,0,0,0,0,0,0,0,0,0],"split_type":[0,0,0,0,0,0,0,0,0,0,0,0,0,0,0,0,0,0,0,0,0,0,0,0,0,0,0,0,0,0,0,0,0,0,0,0,0,0,0,0,0,0,0,0,0,0,0,0,0,0,0,0,0,0,0,0,0,0,0,0,0,0,0,0,0,0,0,0,0,0,0,0,0,0,0,0,0,0,0,0,0,0,0,0,0,0,0,0,0,0,0,0,0,0,0,0,0,0,0,0,0,0,0,0,0,0,0,0,0,0,0,0,0,0,0,0,0,0,0,0,0,0,0],"sum_hessian":[9.48616E5,9.35979E5,1.2637E4,8.40318E5,9.5661E4,7.03E2,1.1934E4,6.15844E5,2.24474E5,8.2253E4,1.3408E4,4.81E2,2.22E2,8.27E2,1.1107E4,2.09213E5,4.06631E5,1.78683E5,4.5791E4,6.8089E4,1.4164E4,1.1304E4,2.104E3,4.42E2,3.9E1,1.91E2,3.1E1,2.04E2,6.23E2,9.41E3,1.697E3,2.6606E4,1.82607E5,2.4739E5,1.59241E5,1.48897E5,2.9786E4,1.5528E4,3.0263E4,1.1413E4,5.6676E4,9.809E3,4.355E3,9.045E3,2.259E3,1.462E3,6.42E2,2E1,4.22E2,3.8E1,1E0,8.3E1,1.08E2,5E0,2.6E1,6E1,1.44E2,1.89E2,4.34E2,7.663E3,1.747E3,1.381E3,3.16E2,2.2462E4,4.144E3,1.5369E5,2.8917E4,2.02493E5,4.4897E4,8.9511E4,6.973E4,8.263E3,1.40634E5,2.0663E4,9.123E3,2.087E3,1.3441E4,1.8723E4,1.154E4,4.216E3,7.197E3,4.4538E4,1.2138E4,4.023E3,5.786E3,8.7E2,3.485E3,2.024E3,7.021E3,2.194E3,6.5E1,9.85E2,4.77E2,2.53E2,3.89E2,3E0,1.7E1,2.65E2,1.57E2,8.2E1,1E0,4E0,1.04E2,2E0,3E0,2.5E1,1E0,4.5E1,1.5E1,5.8E1,8.6E1,1.78E2,1.1E1,4.12E2,2.2E1,5.872E3,1.791E3,2.14E2,1.533E3,1.355E3,2.6E1,2.65E2,5.1E1],"tree_param":{"num_deleted":"0","num_feature":"16","num_nodes":"123","size_leaf_vector":"1"}},{"base_weights":[5.965137E-4,-4.1319907E-1,3.0646616E1,-1.001065E0,4.7507668E0,4.862302E1,2.9583689E1,-1.4340955E0,1.2113802E0,3.8334212E0,1.0092875E1,4.732227E1,5.4873634E1,3.5457043E1,2.914322E1,-1.2311789E0,-2.5825148E0,1.7728772E0,-1.5126293E0,4.4019575E0,1.0988418E0,1.0639141E1,7.1612487E0,5.1101063E1,4.488692E1,7.43358E1,5.2723793E1,3.6157436E1,3.138159E1,2.9852627E1,2.6140781E1,-1.483165E0,-1.6929412E-1,-2.85839E0,-1.9562944E0,2.5648036E0,-4.8127514E-1,-1.9876243E0,-4.7657427E-1,1.5863271E0,4.972199E0,-3.2449704E-2,1.7097378E0,1.0140987E1,1.2165644E1,6.541321E0,8.568743E0,3.8211483E1,5.267369E1,4.803048E1,4.1163532E1,7.8339753E0,2.1152093E0,5.3098686E1,2.2028005E0,3.7028996E1,3.0621866E1,2.4895514E1,3.5043118E1,2.8293957E1,3.0787342E1,2.537923E1,2.937294E1,-8.609355E-2,-1.821667E-1,1.1228172E-1,-1.5781939E-1,-2.3665117E-1,-3.178785E-1,-2.5910724E-2,-2.1013235E-1,4.5753933E-2,3.1609324E-1,7.1860746E-2,-1.1492582E-1,-1.0126954E-1,-2.6496252E-1,1.9626139E-1,-9.714793E-2,8.844819E-2,3.818607E-1,4.3578282E-1,6.877722E-1,-6.0780592E-2,1.2364975E-1,1.9807512E-1,-1.6274834E-1,1.1323469E0,9.120553E-1,1.2621826E0,9.843313E-1,7.974445E-1,5.6430614E-1,1.5534939E0,8.3197814E-1,3.937682E0,3.3737126E-1,2.5812857E0,5.338234E0,4.0042157E0,5.2351203E0,4.149757E0,8.179574E-1,5.4458027E0,3.8025627E0,3.9794738E0,3.4582348E0,1.9332923E0,3.221626E0,1.9122549E0,3.330811E0,3.3283594E0,6.0153203E0,3.0495307E0,2.6946516E0,3.0089118E0,3.3149574E0,2.631191E0,2.3451784E0,3.278576E0,2.6191828E0],"categories":[],"categories_nodes":[],"categories_segments":[],"categories_sizes":[],"default_left":[0,0,0,0,0,0,0,0,0,0,0,0,0,0,0,0,0,0,0,0,0,0,0,0,0,0,0,0,0,0,0,0,0,0,0,0,0,0,0,0,0,0,0,0,0,0,0,0,0,0,0,0,0,0,0,0,0,0,0,0,0,0,0,0,0,0,0,0,0,0,0,0,0,0,0,0,0,0,0,0,0,0,0,0,0,0,0,0,0,0,0,0,0,0,0,0,0,0,0,0,0,0,0,0,0,0,0,0,0,0,0,0,0,0,0,0,0,0,0,0,0],"id":7,"left_children":[1,3,5,7,9,11,13,15,17,19,21,23,25,27,29,31,33,35,37,39,41,43,45,47,49,51,53,55,57,59,61,63,65,67,69,71,73,75,77,79,81,83,85,87,89,91,93,95,97,99,101,-1,-1,103,-1,105,107,109,111,113,115,117,119,-1,-1,-1,-1,-1,-1,-1,-1,-1,-1,-1,-1,-1,-1,-1,-1,-1,-1,-1,-1,-1,-1,-1,-1,-1,-1,-1,-1,-1,-1,-1,-1,-1,-1,-1,-1,-1,-1,-1,-1,-1,-1,-1,-1,-1,-1,-1,-1,-1,-1,-1,-1,-1,-1,-1,-1,-1,-1],"loss_changes":[1.2029603E7,2.8413775E6,2.40044E5,8.0507456E5,4.6875875E5,3.127125E3,2.9843E4,1.6376562E5,2.1038858E5,1.26927625E5,2.23745E4,3.13575E3,8.9240625E2,1.22875E3,2.2878E4,1.5981038E5,1.8225062E4,2.03582E5,1.1567832E4,1.085155E5,9.712795E3,8.861125E3,1.8678984E3,2.5279375E3,2.3185625E3,2.5945312E2,6.1625E1,2.2433125E3,2.1911953E3,1.221E4,4.5E3,1.016675E5,2.0852766E5,1.15368125E4,7.943664E3,1.06014375E5,2.3765336E4,1.0399945E4,8.924074E3,1.7833672E4,6.57715E4,3.5993977E3,8.257064E3,1.06528125E4,2.9501875E3,1.9310312E3,1.0344805E3,1.0038906E3,2.3719375E3,4.5651562E3,1.5886875E3,0E0,0E0,8.059375E1,0E0,2.6839375E3,1.1950703E3,1.7913418E3,1.5324297E3,9.19775E3,8.2405E3,2.4965E3,3.4839062E3,0E0,0E0,0E0,0E0,0E0,0E0,0E0,0E0,0E0,0E0,0E0,0E0,0E0,0E0,0E0,0E0,0E0,0E0,0E0,0E0,0E0,0E0,0E0,0E0,0E0,0E0,0E0,0E0,0E0,0E0,0E0,0E0,0E0,0E0,0E0,0E0,0E0,0E0,0E0,0E0,0E0,0E0,0E0,0E0,0E0,0E0,0E0,0E0,0E0,0E0,0E0,0E0,0E0,0E0,0E0,0E0,0E0,0E0],"parents":[2147483647,0,0,1,1,2,2,3,3,4,4,5,5,6,6,7,7,8,8,9,9,10,10,11,11,12,12,13,13,14,14,15,15,16,16,17,17,18,18,19,19,20,20,21,21,22,22,23,23,24,24,25,25,26,26,27,27,28,28,29,29,30,30,31,31,32,32,33,33,34,34,35,35,36,36,37,37,38,38,39,39,40,40,41,41,42,42,43,43,44,44,45,45,46,46,47,47,48,48,49,49,50,50,53,53,55,55,56,56,57,57,58,58,59,59,60,60,61,61,62,62],"right_children":[2,4,6,8,10,12,14,16,18,20,22,24,26,28,30,32,34,36,38,40,42,44,46,48,50,52,54,56,58,60,62,64,66,68,70,72,74,76,78,80,82,84,86,88,90,92,94,96,98,100,102,-1,-1,104,-1,106,108,110,112,114,116,118,120,-1,-1,-1,-1,-1,-1,-1,-1,-1,-1,-1,-1,-1,-1,-1,-1,-1,-1,-1,-1,-1,-1,-1,-1,-1,-1,-1,-1,-1,-1,-1,-1,-1,-1,-1,-1,-1,-1,-1,-1,-1,-1,-1,-1,-1,-1,-1,-1,-1,-1,-1,-1,-1,-1,-1,-1,-1,-1],"split_conditions":[1E0,2.01E0,5E2,7.34E1,9.97E0,3.2258064E-1,2E3,7.233E2,6.743E2,6.66E2,7.479E2,2.94E1,6.24E2,7.351E2,5.6E2,6.27E1,1.7E1,9E0,1.7E1,7.03E1,8.07E1,1.7E1,1.7E1,6E0,1.6E-1,3.3E1,2.928E3,2.2E1,6E0,8.51E1,3.3E1,1E1,1E1,1E1,3.7037037E-2,7E0,1E1,1E1,8.452E2,1.7E1,1.7E1,1.7E1,2.1885E3,1E1,2.028E3,1E1,2.173913E-2,2.53E1,1E0,8.39E1,1.7924E3,7.8339753E0,2.1152093E0,5.4545456E-1,2.2028005E0,5E0,7.8E2,9.677419E-2,2.7E1,1E1,1.7E1,1.4786E3,3.08E1,-8.609355E-2,-1.821667E-1,1.1228172E-1,-1.5781939E-1,-2.3665117E-1,-3.178785E-1,-2.5910724E-2,-2.1013235E-1,4.5753933E-2,3.1609324E-1,7.1860746E-2,-1.1492582E-1,-1.0126954E-1,-2.6496252E-1,1.9626139E-1,-9.714793E-2,8.844819E-2,3.818607E-1,4.3578282E-1,6.877722E-1,-6.0780592E-2,1.2364975E-1,1.9807512E-1,-1.6274834E-1,1.1323469E0,9.120553E-1,1.2621826E0,9.843313E-1,7.974445E-1,5.6430614E-1,1.5534939E0,8.3197814E-1,3.937682E0,3.3737126E-1,2.5812857E0,5.338234E0,4.0042157E0,5.2351203E0,4.149757E0,8.179574E-1,5.4458027E0,3.8025627E0,3.9794738E0,3.4582348E0,1.9332923E0,3.221626E0,1.9122549E0,3.330811E0,3.3283594E0,6.0153203E0,3.0495307E0,2.6946516E0,3.0089118E0,3.3149574E0,2.631191E0,2.3451784E0,3.278576E0,2.6191828E0],"split_indices":[12,8,10,11,8,14,10,15,15,15,15,7,6,15,15,11,0,3,0,11,11,0,0,0,14,9,6,4,5,11,9,0,3,0,14,3,0,0,15,0,0,0,15,0,6,0,14,9,5,11,15,0,0,14,0,13,6,14,4,0,0,15,7,0,0,0,0,0,0,0,0,0,0,0,0,0,0,0,0,0,0,0,0,0,0,0,0,0,0,0,0,0,0,0,0,0,0,0,0,0,0,0,0,0,0,0,0,0,0,0,0,0,0,0,0,0,0,0,0,0,0],"split_type":[0,0,0,0,0,0,0,0,0,0,0,0,0,0,0,0,0,0,0,0,0,0,0,0,0,0,0,0,0,0,0,0,0,0,0,0,0,0,0,0,0,0,0,0,0,0,0,0,0,0,0,0,0,0,0,0,0,0,0,0,0,0,0,0,0,0,0,0,0,0,0,0,0,0,0,0,0,0,0,0,0,0,0,0,0,0,0,0,0,0,0,0,0,0,0,0,0,0,0,0,0,0,0,0,0,0,0,0,0,0,0,0,0,0,0,0,0,0,0,0,0],"sum_hessian":[9.48616E5,9.35979E5,1.2637E4,8.40318E5,9.5661E4,7.03E2,1.1934E4,7.02769E5,1.37549E5,8.1643E4,1.4018E4,5.89E2,1.14E2,8.27E2,1.1107E4,5.97243E5,1.05526E5,1.14042E5,2.3507E4,6.759E4,1.4053E4,1.1814E4,2.204E3,2.23E2,3.66E2,8E0,1.06E2,6.99E2,1.28E2,8.977E3,2.13E3,4.82698E5,1.14545E5,7.3252E4,3.2274E4,8.4393E4,2.9649E4,1.6117E4,7.39E3,1.1384E4,5.6206E4,4.928E3,9.125E3,8.913E3,2.901E3,1.534E3,6.7E2,2.7E1,1.96E2,1.92E2,1.74E2,7E0,1E0,1.04E2,2E0,5.99E2,1E2,4.9E1,7.9E1,3.377E3,5.6E3,1.731E3,3.99E2,1.70074E5,3.12624E5,5.9749E4,5.4796E4,2.8897E4,4.4355E4,2.541E3,2.9733E4,1.861E4,6.5783E4,1.0603E4,1.9046E4,6.519E3,9.598E3,1.246E3,6.144E3,8.662E3,2.722E3,4.2505E4,1.3701E4,3.391E3,1.537E3,8.44E3,6.85E2,4.124E3,4.789E3,2.421E3,4.8E2,5.88E2,9.46E2,2.1E1,6.49E2,2.6E1,1E0,6E0,1.9E2,7.1E1,1.21E2,1.72E2,2E0,9.3E1,1.1E1,2.74E2,3.25E2,1.4E1,8.6E1,3.1E1,1.8E1,7.6E1,3E0,1.274E3,2.103E3,4.333E3,1.267E3,1.158E3,5.73E2,1.88E2,2.11E2],"tree_param":{"num_deleted":"0","num_feature":"16","num_nodes":"121","size_leaf_vector":"1"}},{"base_weights":[6.493032E-4,-3.7186983E-1,2.7589703E1,-9.009597E-1,4.2757916E0,4.3828617E1,2.662952E1,-1.433083E0,5.589197E-1,3.4700246E0,9.218242E0,4.5047718E1,3.8595623E1,3.1944164E1,2.6230965E1,-1.690662E0,-6.945028E-1,1.4688957E0,-7.986611E-1,3.9797907E0,9.934431E-1,9.754445E0,6.791601E0,4.805869E1,4.250549E1,2.9953623E1,4.23739E1,3.4091473E1,3.0559187E1,2.6753603E1,2.2939198E1,-8.8092023E-1,-2.3754387E0,-4.5492494E-1,-1.9487343E0,2.007952E0,-1.2280409E0,2.1221627E-2,-1.5916697E0,4.303368E0,-3.907597E-1,4.8746464E-1,2.146223E0,1.0185408E1,8.029884E0,6.1192594E0,9.810123E0,2.3600325E1,4.8561344E1,4.099705E1,5.109382E1,3.068654E1,-1.5138626E-1,4.27827E1,1.9734803E-1,1.9618753E1,3.4797955E1,2.6563356E1,3.209149E1,2.9734558E1,2.63402E1,2.3414953E1,1.7683308E1,-3.060489E-1,-5.6334015E-2,-2.5244516E-1,-2.0298193E-1,-1.8140038E-2,-1.5029465E-1,-3.0968133E-1,-1.7675346E-1,3.5410576E-2,2.9491267E-1,-1.6112177E-1,-3.6627114E-2,1.1494658E-1,-5.7577558E-2,-8.988812E-2,-1.9470993E-1,6.290319E-2,4.7741196E-1,1.14803806E-1,-1.2243362E-1,1.6896571E-1,-3.3958178E-2,3.0815932E-1,1.1877471E-1,8.4895104E-1,1.0671796E0,3.1038722E-1,8.250724E-1,7.1366966E-1,5.1348877E-1,1.1396859E0,6.838225E-1,2.938185E0,6.097677E-1,3.7772698E0,5.000484E0,4.5689306E0,3.6602495E0,3.2788258E0,5.7122154E0,3.1567473E0,7.831009E-1,5.1709514E0,3.8212094E0,3.0344267E0,9.0764683E-1,1.1727605E0,3.522889E0,1.6160845E0,2.7789936E0,3.2696016E0,1.933013E0,2.7479348E0,3.1027098E0,2.7926579E0,2.5567386E0,2.3662446E0,1.3093776E0,1.0102406E0,2.194573E0],"categories":[],"categories_nodes":[],"categories_segments":[],"categories_sizes":[],"default_left":[0,0,0,0,0,0,0,0,0,0,0,0,0,0,0,0,0,0,0,0,0,0,0,0,0,0,0,0,0,0,0,0,0,0,0,0,0,0,0,0,0,0,0,0,0,0,0,0,0,0,0,0,0,0,0,0,0,0,0,0,0,0,0,0,0,0,0,0,0,0,0,0,0,0,0,0,0,0,0,0,0,0,0,0,0,0,0,0,0,0,0,0,0,0,0,0,0,0,0,0,0,0,0,0,0,0,0,0,0,0,0,0,0,0,0,0,0,0,0,0,0,0,0],"id":8,"left_children":[1,3,5,7,9,11,13,15,17,19,21,23,25,27,29,31,33,35,37,39,41,43,45,47,49,51,53,55,57,59,61,63,65,67,69,71,73,75,77,79,81,83,85,87,89,91,93,95,97,99,101,103,-1,105,-1,107,109,111,113,115,117,119,121,-1,-1,-1,-1,-1,-1,-1,-1,-1,-1,-1,-1,-1,-1,-1,-1,-1,-1,-1,-1,-1,-1,-1,-1,-1,-1,-1,-1,-1,-1,-1,-1,-1,-1,-1,-1,-1,-1,-1,-1,-1,-1,-1,-1,-1,-1,-1,-1,-1,-1,-1,-1,-1,-1,-1,-1,-1,-1,-1,-1],"loss_changes":[9.749375E6,2.3016072E6,1.95888E5,6.527908E5,3.8093838E5,2.752625E3,2.4443E4,1.17158875E5,2.7730997E5,1.0383994E5,1.738125E4,2.282E3,3.3020156E3,1.4206875E3,1.84965E4,2.5318138E5,4.784911E4,1.953831E5,5.8569656E4,9.646925E4,8.1893965E3,8.0788125E3,4.8716016E3,1.93975E3,1.9860625E3,1.1073594E3,1.4845469E3,2.5483125E3,2.2885625E3,1.1023E4,3.40925E3,1.4481362E5,1.2736E4,3.8327266E4,5.3074375E3,1.7434278E5,7.3921523E3,2.983392E4,1.1273961E4,1.09852E5,6.03397E3,9.704639E3,3.8361797E3,7.1525E3,2.3676719E3,1.9564141E3,2.0016523E3,5.291831E2,1.926625E3,3.9570312E3,2.8722031E3,6.5883203E2,0E0,1.859375E3,0E0,1.6467954E3,2.569375E3,1.4392891E3,2.1915E3,2.525875E3,9.6105E3,3.26375E3,4.0113008E3,0E0,0E0,0E0,0E0,0E0,0E0,0E0,0E0,0E0,0E0,0E0,0E0,0E0,0E0,0E0,0E0,0E0,0E0,0E0,0E0,0E0,0E0,0E0,0E0,0E0,0E0,0E0,0E0,0E0,0E0,0E0,0E0,0E0,0E0,0E0,0E0,0E0,0E0,0E0,0E0,0E0,0E0,0E0,0E0,0E0,0E0,0E0,0E0,0E0,0E0,0E0,0E0,0E0,0E0,0E0,0E0,0E0,0E0,0E0,0E0],"parents":[2147483647,0,0,1,1,2,2,3,3,4,4,5,5,6,6,7,7,8,8,9,9,10,10,11,11,12,12,13,13,14,14,15,15,16,16,17,17,18,18,19,19,20,20,21,21,22,22,23,23,24,24,25,25,26,26,27,27,28,28,29,29,30,30,31,31,32,32,33,33,34,34,35,35,36,36,37,37,38,38,39,39,40,40,41,41,42,42,43,43,44,44,45,45,46,46,47,47,48,48,49,49,50,50,51,51,53,53,55,55,56,56,57,57,58,58,59,59,60,60,61,61,62,62],"right_children":[2,4,6,8,10,12,14,16,18,20,22,24,26,28,30,32,34,36,38,40,42,44,46,48,50,52,54,56,58,60,62,64,66,68,70,72,74,76,78,80,82,84,86,88,90,92,94,96,98,100,102,104,-1,106,-1,108,110,112,114,116,118,120,122,-1,-1,-1,-1,-1,-1,-1,-1,-1,-1,-1,-1,-1,-1,-1,-1,-1,-1,-1,-1,-1,-1,-1,-1,-1,-1,-1,-1,-1,-1,-1,-1,-1,-1,-1,-1,-1,-1,-1,-1,-1,-1,-1,-1,-1,-1,-1,-1,-1,-1,-1,-1,-1,-1,-1,-1,-1,-1,-1,-1],"split_conditions":[1E0,2.01E0,5E2,6.58E1,1.01E1,5.076E2,2E3,1.7E1,9E0,6.743E2,6.081E2,3.01E1,1.06E3,1E1,9.014E2,1E1,8.641E2,6.921E2,1E1,1E1,1.7E1,9E0,1.9E1,1E0,3.478261E-1,3.73E1,2.58E3,1.44E1,1.3E1,1.414E1,3.65E1,6E0,5.55E1,2.2E1,4E0,7E0,1.7E1,1E1,1E1,6E0,1E1,1E1,1.3E1,7E0,6E0,1.2E1,1.6911E3,2.2222222E-1,6E0,1.5384616E-1,8.39E1,9.756E2,-1.5138626E-1,2.81E1,1.9734803E-1,6E0,1.72E1,7.56E2,1.7315E3,8.63E1,9E0,4.6816E3,6E0,-3.060489E-1,-5.6334015E-2,-2.5244516E-1,-2.0298193E-1,-1.8140038E-2,-1.5029465E-1,-3.0968133E-1,-1.7675346E-1,3.5410576E-2,2.9491267E-1,-1.6112177E-1,-3.6627114E-2,1.1494658E-1,-5.7577558E-2,-8.988812E-2,-1.9470993E-1,6.290319E-2,4.7741196E-1,1.14803806E-1,-1.2243362E-1,1.6896571E-1,-3.3958178E-2,3.0815932E-1,1.1877471E-1,8.4895104E-1,1.0671796E0,3.1038722E-1,8.250724E-1,7.1366966E-1,5.1348877E-1,1.1396859E0,6.838225E-1,2.938185E0,6.097677E-1,3.7772698E0,5.000484E0,4.5689306E0,3.6602495E0,3.2788258E0,5.7122154E0,3.1567473E0,7.831009E-1,5.1709514E0,3.8212094E0,3.0344267E0,9.0764683E-1,1.1727605E0,3.522889E0,1.6160845E0,2.7789936E0,3.2696016E0,1.933013E0,2.7479348E0,3.1027098E0,2.7926579E0,2.5567386E0,2.3662446E0,1.3093776E0,1.0102406E0,2.194573E0],"split_indices":[12,8,10,11,8,15,10,0,3,15,15,7,15,0,15,0,15,15,3,3,0,3,0,5,14,7,6,9,0,8,7,0,11,4,4,3,0,0,0,3,0,0,4,3,0,4,15,14,0,14,11,15,0,7,0,5,7,6,15,11,0,15,5,0,0,0,0,0,0,0,0,0,0,0,0,0,0,0,0,0,0,0,0,0,0,0,0,0,0,0,0,0,0,0,0,0,0,0,0,0,0,0,0,0,0,0,0,0,0,0,0,0,0,0,0,0,0,0,0,0,0,0,0],"split_type":[0,0,0,0,0,0,0,0,0,0,0,0,0,0,0,0,0,0,0,0,0,0,0,0,0,0,0,0,0,0,0,0,0,0,0,0,0,0,0,0,0,0,0,0,0,0,0,0,0,0,0,0,0,0,0,0,0,0,0,0,0,0,0,0,0,0,0,0,0,0,0,0,0,0,0,0,0,0,0,0,0,0,0,0,0,0,0,0,0,0,0,0,0,0,0,0,0,0,0,0,0,0,0,0,0,0,0,0,0,0,0,0,0,0,0,0,0,0,0,0,0,0,0],"sum_hessian":[9.48616E5,9.35979E5,1.2637E4,8.40318E5,9.5661E4,7.03E2,1.1934E4,6.15844E5,2.24474E5,8.2253E4,1.3408E4,5.64E2,1.39E2,8.27E2,1.1107E4,4.56603E5,1.59241E5,1.34392E5,9.0082E4,6.8212E4,1.4041E4,1.0979E4,2.429E3,2.5E2,3.14E2,4.5E1,9.4E1,3.15E2,5.12E2,9.579E3,1.528E3,2.09213E5,2.4739E5,1.33703E5,2.5538E4,1.12005E5,2.2387E4,4.4291E4,4.5791E4,6.351E4,4.702E3,9.759E3,4.282E3,8.78E3,2.199E3,1.989E3,4.4E2,6E0,2.44E2,2.72E2,4.2E1,4.4E1,1E0,9.3E1,1E0,1.6E1,2.99E2,1.47E2,3.65E2,1.158E3,8.421E3,1.398E3,1.3E2,2.6606E4,1.82607E5,1.72857E5,7.4533E4,1.06031E5,2.7672E4,3.479E3,2.2059E4,4.0623E4,7.1382E4,1.5496E4,6.891E3,1.5326E4,2.8965E4,1.5528E4,3.0263E4,7.213E3,5.6297E4,1.652E3,3.05E3,3.977E3,5.782E3,2.166E3,2.116E3,1.961E3,6.819E3,9.5E1,2.104E3,9.75E2,1.014E3,2.85E2,1.55E2,4E0,2E0,3.2E1,2.12E2,1.27E2,1.45E2,1.2E1,3E1,4.2E1,2E0,2.8E1,6.5E1,7E0,9E0,6E0,2.93E2,1.7E1,1.3E2,3.47E2,1.8E1,4.3E2,7.28E2,2.747E3,5.674E3,1.364E3,3.4E1,4.8E1,8.2E1],"tree_param":{"num_deleted":"0","num_feature":"16","num_nodes":"123","size_leaf_vector":"1"}},{"base_weights":[6.733466E-4,-3.346769E-1,2.4836971E1,-8.1086564E-1,3.848288E0,3.950616E1,2.396961E1,-1.2942152E0,4.9243924E-1,3.1035283E0,8.185353E0,4.1084713E1,3.5917065E1,2.8771772E1,2.3609495E1,-1.5247289E0,-6.3367724E-1,1.3168051E0,-7.196465E-1,4.5391874E0,2.3590457E0,8.695493E0,6.103043E0,4.0079456E1,5.11908E1,3.699905E1,2.8302746E1,3.070966E1,2.7521978E1,2.419448E1,2.113384E1,-7.9658306E-1,-2.141016E0,-2.012619E0,-4.3770963E-1,1.7808422E0,-1.224479E0,2.9215425E-2,-1.4236876E0,-1.2170026E-1,5.225887E0,9.301222E-1,4.633143E0,4.941064E0,8.85824E0,5.411257E0,8.992653E0,3.8730267E1,4.6283806E1,5.1900505E1,1.1756204E0,4.2161404E1,3.4507084E1,1.6109587E0,3.3186005E1,2.9468508E1,3.9014183E1,2.918025E1,2.4004524E1,2.5624964E1,2.3373259E1,2.4185034E1,2.0466356E1,-2.758211E-1,-5.1094264E-2,-2.035486E-1,-2.6173452E-1,-1.8504626E-1,-2.88235E-1,6.4482816E-2,-1.0679884E-1,-2.2865842E-1,2.1152604E-1,-3.794546E-2,-1.5278034E-1,3.648593E-2,-1.8958873E-1,-1.7044425E-1,-5.8540743E-2,6.663832E-2,-3.8071403E-1,6.01877E-1,1.7198E-1,-6.2196273E-2,1.7910731E-1,5.2910703E-1,1.5147117E-1,8.392276E-1,3.4664088E-1,1.0110917E0,8.255858E-1,6.392762E-1,4.4730672E-1,1.0909599E0,7.134051E-1,4.1343055E0,3.3147316E0,2.0104523E-1,4.686275E0,5.5801196E0,3.689864E0,2.949917E0,4.85508E0,2.4710114E0,3.650903E0,-5.279277E-1,1.0260953E0,2.6652448E0,5.1611376E0,2.4028013E0,3.201662E0,1.8401531E0,4.477668E0,2.6932054E0,3.285624E0,7.188286E-1,2.570499E0,2.588772E0,1.441342E0,2.1891947E0,2.6063783E0,4.7325513E-1,2.4486873E0,1.7912298E0,2.119499E0],"categories":[],"categories_nodes":[],"categories_segments":[],"categories_sizes":[],"default_left":[0,0,0,0,0,0,0,0,0,0,0,0,0,0,0,0,0,0,0,0,0,0,0,0,0,0,0,0,0,0,0,0,0,0,0,0,0,0,0,0,0,0,0,0,0,0,0,0,0,0,0,0,0,0,0,0,0,0,0,0,0,0,0,0,0,0,0,0,0,0,0,0,0,0,0,0,0,0,0,0,0,0,0,0,0,0,0,0,0,0,0,0,0,0,0,0,0,0,0,0,0,0,0,0,0,0,0,0,0,0,0,0,0,0,0,0,0,0,0,0,0,0,0,0,0],"id":9,"left_children":[1,3,5,7,9,11,13,15,17,19,21,23,25,27,29,31,33,35,37,39,41,43,45,47,49,51,53,55,57,59,61,63,65,67,69,71,73,75,77,79,81,83,85,87,89,91,93,95,97,99,-1,101,103,105,107,109,111,113,115,117,119,121,123,-1,-1,-1,-1,-1,-1,-1,-1,-1,-1,-1,-1,-1,-1,-1,-1,-1,-1,-1,-1,-1,-1,-1,-1,-1,-1,-1,-1,-1,-1,-1,-1,-1,-1,-1,-1,-1,-1,-1,-1,-1,-1,-1,-1,-1,-1,-1,-1,-1,-1,-1,-1,-1,-1,-1,-1,-1,-1,-1,-1,-1,-1],"loss_changes":[7.900905E6,1.8643636E6,1.59852E5,5.293612E5,3.0896975E5,2.513E3,1.9961E4,9.333394E4,2.2715455E5,8.725225E4,1.4838875E4,2.8450625E3,7.9003125E2,1.160125E3,1.5575E4,2.0391162E5,4.285187E4,1.5956536E5,4.8519387E4,8.923094E4,1.7470888E5,6.835125E3,5.472547E3,1.9156875E3,5.093203E2,1.01509375E3,4.11751E3,2.1074062E3,2.2917812E3,9.948E3,3.845E3,1.1671386E5,1.2365625E4,2.7775156E3,9.473744E4,1.5563725E5,5.3546406E3,2.8815701E4,1.1162422E4,1.0403316E4,6.7538875E4,4.4124707E4,4.2558656E4,2.3629023E3,8.0578125E3,2.0257969E3,1.8176016E3,4.026875E3,1.8025312E3,2.2320312E2,0E0,3.2602344E3,1.7456094E3,4.117734E2,1.8747773E3,3.0984844E3,3.6896953E3,1.9580625E3,4.6764453E3,9.24225E3,2.220625E4,2.0976875E3,2.886375E3,0E0,0E0,0E0,0E0,0E0,0E0,0E0,0E0,0E0,0E0,0E0,0E0,0E0,0E0,0E0,0E0,0E0,0E0,0E0,0E0,0E0,0E0,0E0,0E0,0E0,0E0,0E0,0E0,0E0,0E0,0E0,0E0,0E0,0E0,0E0,0E0,0E0,0E0,0E0,0E0,0E0,0E0,0E0,0E0,0E0,0E0,0E0,0E0,0E0,0E0,0E0,0E0,0E0,0E0,0E0,0E0,0E0,0E0,0E0,0E0,0E0,0E0],"parents":[2147483647,0,0,1,1,2,2,3,3,4,4,5,5,6,6,7,7,8,8,9,9,10,10,11,11,12,12,13,13,14,14,15,15,16,16,17,17,18,18,19,19,20,20,21,21,22,22,23,23,24,24,25,25,26,26,27,27,28,28,29,29,30,30,31,31,32,32,33,33,34,34,35,35,36,36,37,37,38,38,39,39,40,40,41,41,42,42,43,43,44,44,45,45,46,46,47,47,48,48,49,49,51,51,52,52,53,53,54,54,55,55,56,56,57,57,58,58,59,59,60,60,61,61,62,62],"right_children":[2,4,6,8,10,12,14,16,18,20,22,24,26,28,30,32,34,36,38,40,42,44,46,48,50,52,54,56,58,60,62,64,66,68,70,72,74,76,78,80,82,84,86,88,90,92,94,96,98,100,-1,102,104,106,108,110,112,114,116,118,120,122,124,-1,-1,-1,-1,-1,-1,-1,-1,-1,-1,-1,-1,-1,-1,-1,-1,-1,-1,-1,-1,-1,-1,-1,-1,-1,-1,-1,-1,-1,-1,-1,-1,-1,-1,-1,-1,-1,-1,-1,-1,-1,-1,-1,-1,-1,-1,-1,-1,-1,-1,-1,-1,-1,-1,-1,-1,-1,-1,-1,-1,-1,-1],"split_conditions":[1E0,2.01E0,5E2,6.56E1,9.97E0,7.66E1,2E3,1.7E1,9E0,1E1,5.545E2,1.8E1,6E0,1E1,5.6E2,1E1,4E0,7.767E2,1E1,6E0,1.7E1,6E0,1.9E1,3.478261E-1,3.024E3,2.12E1,2.057E2,3.42E1,1.9565217E-1,1E1,1.541E1,6E0,4.581E2,1.2834E3,9E0,6E0,1E1,8.272E2,1.7E1,2.7E0,6.43E1,8.11E1,8.091E2,7E0,1E1,1.2E1,8.272E2,1.9E1,1E0,7E0,1.1756204E0,2E0,5.5555556E-2,8E0,1.4027E3,8.23E1,6E0,1.6E1,8.52E2,7.34E1,1.7E1,1.48E1,1.652E1,-2.758211E-1,-5.1094264E-2,-2.035486E-1,-2.6173452E-1,-1.8504626E-1,-2.88235E-1,6.4482816E-2,-1.0679884E-1,-2.2865842E-1,2.1152604E-1,-3.794546E-2,-1.5278034E-1,3.648593E-2,-1.8958873E-1,-1.7044425E-1,-5.8540743E-2,6.663832E-2,-3.8071403E-1,6.01877E-1,1.7198E-1,-6.2196273E-2,1.7910731E-1,5.2910703E-1,1.5147117E-1,8.392276E-1,3.4664088E-1,1.0110917E0,8.255858E-1,6.392762E-1,4.4730672E-1,1.0909599E0,7.134051E-1,4.1343055E0,3.3147316E0,2.0104523E-1,4.686275E0,5.5801196E0,3.689864E0,2.949917E0,4.85508E0,2.4710114E0,3.650903E0,-5.279277E-1,1.0260953E0,2.6652448E0,5.1611376E0,2.4028013E0,3.201662E0,1.8401531E0,4.477668E0,2.6932054E0,3.285624E0,7.188286E-1,2.570499E0,2.588772E0,1.441342E0,2.1891947E0,2.6063783E0,4.7325513E-1,2.4486873E0,1.7912298E0,2.119499E0],"split_indices":[12,8,10,11,8,15,10,0,3,0,15,0,1,0,15,0,4,15,3,0,0,0,0,14,6,9,15,7,14,0,8,0,15,15,4,3,0,15,0,15,15,11,15,5,0,4,15,5,5,13,0,1,14,3,15,11,5,0,6,15,0,7,8,0,0,0,0,0,0,0,0,0,0,0,0,0,0,0,0,0,0,0,0,0,0,0,0,0,0,0,0,0,0,0,0,0,0,0,0,0,0,0,0,0,0,0,0,0,0,0,0,0,0,0,0,0,0,0,0,0,0,0,0,0,0],"split_type":[0,0,0,0,0,0,0,0,0,0,0,0,0,0,0,0,0,0,0,0,0,0,0,0,0,0,0,0,0,0,0,0,0,0,0,0,0,0,0,0,0,0,0,0,0,0,0,0,0,0,0,0,0,0,0,0,0,0,0,0,0,0,0,0,0,0,0,0,0,0,0,0,0,0,0,0,0,0,0,0,0,0,0,0,0,0,0,0,0,0,0,0,0,0,0,0,0,0,0,0,0,0,0,0,0,0,0,0,0,0,0,0,0,0,0,0,0,0,0,0,0,0,0,0,0],"sum_hessian":[9.48616E5,9.35979E5,1.2637E4,8.40318E5,9.5661E4,7.03E2,1.1934E4,6.12984E5,2.27334E5,8.1643E4,1.4018E4,4.81E2,2.22E2,8.27E2,1.1107E4,4.54405E5,1.58579E5,1.35308E5,9.2026E4,2.7878E4,5.3765E4,1.1257E4,2.761E3,4.42E2,3.9E1,1.91E2,3.1E1,3.15E2,5.12E2,8.977E3,2.13E3,2.083E5,2.46105E5,1.9731E4,1.38848E5,1.14416E5,2.0892E4,4.4594E4,4.7432E4,3.58E3,2.4298E4,3.3019E4,2.0746E4,4.69E2,1.0788E4,2.23E3,5.31E2,3.69E2,7.3E1,3.8E1,1E0,5.7E1,1.34E2,5E0,2.6E1,2.78E2,3.7E1,3.43E2,1.69E2,3.263E3,5.714E3,3.76E2,1.754E3,2.6475E4,1.81825E5,2.01474E5,4.4631E4,1.6633E4,3.098E3,5.1093E4,8.7755E4,8.692E3,1.05724E5,5.519E3,1.5373E4,3.7974E4,6.62E3,3.5531E4,1.1901E4,2.95E3,6.3E2,1.9816E4,4.482E3,1.1781E4,2.1238E4,1.7131E4,3.615E3,1.39E2,3.3E2,3.498E3,7.29E3,1.087E3,1.143E3,2.59E2,2.72E2,2.47E2,1.22E2,1E0,7.2E1,2.8E1,1E1,2.1E1,3.6E1,2.5E1,1.09E2,3E0,2E0,2.1E1,5E0,9.2E1,1.86E2,9E0,2.8E1,2.18E2,1.25E2,1.6E1,1.53E2,3.187E3,7.6E1,3.691E3,2.023E3,6E0,3.7E2,3.95E2,1.359E3],"tree_param":{"num_deleted":"0","num_feature":"16","num_nodes":"125","size_leaf_vector":"1"}},{"base_weights":[6.978459E-4,-3.0120364E-1,2.2359753E1,-7.297814E-1,3.463534E0,3.5619514E1,2.1575737E1,-1.1889387E0,3.8588563E-1,2.8089566E0,7.4786096E0,3.4563995E1,4.0468338E1,2.5920187E1,2.1249956E1,-1.3310821E0,-2.7571532E-1,8.9969635E-1,-1.2992817E0,1.4640895E0,3.5184145E0,7.9128866E0,5.513244E0,3.763732E1,3.2580753E1,5.488575E1,3.880489E1,2.6795265E1,2.3300568E1,2.1708889E1,1.8693851E1,-1.5340767E0,-7.5410974E-1,6.103382E-1,-1.0026975E0,1.3118964E0,-1.116035E0,-1.1169642E0,-2.4378347E0,1.9417747E0,-6.6873163E-1,4.02283E0,1.3411636E0,8.301167E0,6.3595223E0,4.9668126E0,7.966498E0,2.724858E1,3.89294E1,3.523144E1,2.9398514E1,9.2763823E-1,5.8922745E1,3.4286858E1,4.2938984E1,2.9083435E1,2.4588076E1,2.2439697E1,4.0511616E1,2.4424065E1,2.133506E1,2.3798092E1,1.8328741E1,-1.0351246E-1,-1.9202979E-1,-5.4561645E-2,-1.715416E-1,-2.4180017E-1,7.480401E-2,-2.1875596E-1,4.4189643E-2,7.5148895E-2,3.0126825E-1,-1.5373315E-1,-1.9488214E-2,-1.3820745E-1,-3.029778E-2,-1.15781724E-1,-2.5221267E-1,4.338445E-3,3.0660638E-1,-1.1577107E-1,7.276562E-2,5.379992E-1,3.2746205E-1,6.92262E-2,2.6174763E-1,-1.5087973E-1,8.373365E-1,6.527719E-1,6.439562E-2,5.206459E-1,1.9043827E-1,9.311304E-1,5.449953E-1,2.83134E0,-7.50763E-2,4.2762446E0,3.3739274E0,2.8238733E0,3.9069505E0,3.1449437E0,2.212853E0,6.256428E0,1.4895241E0,2.9533932E0,4.3208146E0,4.372478E0,1.5005565E0,3.0458128E0,2.3831356E0,2.7469814E0,1.6587695E0,8.492579E-1,2.325443E0,9.5872E-1,4.317877E0,2.6059663E0,2.2483366E0,7.9868674E-1,2.1408663E0,1.8420328E0,3.2399197E0,1.9790812E0,1.7024554E0],"categories":[],"categories_nodes":[],"categories_segments":[],"categories_sizes":[],"default_left":[0,0,0,0,0,0,0,0,0,0,0,0,0,0,0,0,0,0,0,0,0,0,0,0,0,0,0,0,0,0,0,0,0,0,0,0,0,0,0,0,0,0,0,0,0,0,0,0,0,0,0,0,0,0,0,0,0,0,0,0,0,0,0,0,0,0,0,0,0,0,0,0,0,0,0,0,0,0,0,0,0,0,0,0,0,0,0,0,0,0,0,0,0,0,0,0,0,0,0,0,0,0,0,0,0,0,0,0,0,0,0,0,0,0,0,0,0,0,0,0,0,0,0,0,0],"id":10,"left_children":[1,3,5,7,9,11,13,15,17,19,21,23,25,27,29,31,33,35,37,39,41,43,45,47,49,51,53,55,57,59,61,63,65,67,69,71,73,75,77,79,81,83,85,87,89,91,93,95,97,99,101,-1,103,105,107,109,111,113,115,117,119,121,123,-1,-1,-1,-1,-1,-1,-1,-1,-1,-1,-1,-1,-1,-1,-1,-1,-1,-1,-1,-1,-1,-1,-1,-1,-1,-1,-1,-1,-1,-1,-1,-1,-1,-1,-1,-1,-1,-1,-1,-1,-1,-1,-1,-1,-1,-1,-1,-1,-1,-1,-1,-1,-1,-1,-1,-1,-1,-1,-1,-1,-1,-1],"loss_changes":[6.4033915E6,1.5101902E6,1.306145E5,4.3046794E5,2.5139588E5,2.2043125E3,1.6341E4,7.727669E4,2.1214047E5,7.84755E4,1.1401125E4,2.3394375E3,7.480781E2,1.2736875E3,1.2625E4,6.03325E4,5.1649453E4,1.5600669E5,1.1880719E4,2.8943852E4,5.9131562E4,6.5696875E3,3.2179297E3,1.9325625E3,2.0261875E3,1.2946602E3,6.010156E2,2.385875E3,2.2764766E3,9.0315E3,2.72825E3,7.343125E4,2.6870375E4,1.5071643E4,7.539036E4,1.4857403E5,1.2370477E4,1.0648695E4,8.495547E2,4.9537883E4,3.550742E3,4.4375438E4,8.387867E3,6.231875E3,2.1107422E3,1.4505508E3,1.4417148E3,8.5605664E2,2.4564375E3,4.0765625E3,1.8537031E3,0E0,5.1103906E2,1.1832266E3,5.291719E2,1.41125E3,6.898875E3,2.1546875E3,3.2835742E2,3.0073125E3,7.96375E3,4.491211E3,2.693E3,0E0,0E0,0E0,0E0,0E0,0E0,0E0,0E0,0E0,0E0,0E0,0E0,0E0,0E0,0E0,0E0,0E0,0E0,0E0,0E0,0E0,0E0,0E0,0E0,0E0,0E0,0E0,0E0,0E0,0E0,0E0,0E0,0E0,0E0,0E0,0E0,0E0,0E0,0E0,0E0,0E0,0E0,0E0,0E0,0E0,0E0,0E0,0E0,0E0,0E0,0E0,0E0,0E0,0E0,0E0,0E0,0E0,0E0,0E0,0E0,0E0,0E0],"parents":[2147483647,0,0,1,1,2,2,3,3,4,4,5,5,6,6,7,7,8,8,9,9,10,10,11,11,12,12,13,13,14,14,15,15,16,16,17,17,18,18,19,19,20,20,21,21,22,22,23,23,24,24,25,25,26,26,27,27,28,28,29,29,30,30,31,31,32,32,33,33,34,34,35,35,36,36,37,37,38,38,39,39,40,40,41,41,42,42,43,43,44,44,45,45,46,46,47,47,48,48,49,49,50,50,52,52,53,53,54,54,55,55,56,56,57,57,58,58,59,59,60,60,61,61,62,62],"right_children":[2,4,6,8,10,12,14,16,18,20,22,24,26,28,30,32,34,36,38,40,42,44,46,48,50,52,54,56,58,60,62,64,66,68,70,72,74,76,78,80,82,84,86,88,90,92,94,96,98,100,102,-1,104,106,108,110,112,114,116,118,120,122,124,-1,-1,-1,-1,-1,-1,-1,-1,-1,-1,-1,-1,-1,-1,-1,-1,-1,-1,-1,-1,-1,-1,-1,-1,-1,-1,-1,-1,-1,-1,-1,-1,-1,-1,-1,-1,-1,-1,-1,-1,-1,-1,-1,-1,-1,-1,-1,-1,-1,-1,-1,-1,-1,-1,-1,-1,-1,-1,-1,-1,-1,-1],"split_conditions":[1E0,2.01E0,5E2,6.44E1,1.01E1,3.125E-1,2E3,1.2E1,1E1,8.03E1,6.081E2,2.94E1,6.24E2,3.096E2,7.351E2,1.7E1,1E1,6.743E2,7.92E2,1E1,6.017E2,9E0,1.9E1,6E0,1.6E-1,3.2258064E-1,1.428E3,5E0,2.7E1,1.414E1,8.66E0,1E1,9.014E2,4E0,1.7E1,1.7E1,1.7E1,1.7E1,3.2258064E-2,6E0,1.7E1,1E1,1.7E1,5E0,1E1,2.1885E3,1.6911E3,2.53E1,7.66E1,8.39E1,9.89E1,9.2763823E-1,3.3E1,9.73E1,2.928E3,2.2E1,4E0,3.532E2,1E0,8E0,9.9E0,7.03E0,3.09E1,-1.0351246E-1,-1.9202979E-1,-5.4561645E-2,-1.715416E-1,-2.4180017E-1,7.480401E-2,-2.1875596E-1,4.4189643E-2,7.5148895E-2,3.0126825E-1,-1.5373315E-1,-1.9488214E-2,-1.3820745E-1,-3.029778E-2,-1.15781724E-1,-2.5221267E-1,4.338445E-3,3.0660638E-1,-1.1577107E-1,7.276562E-2,5.379992E-1,3.2746205E-1,6.92262E-2,2.6174763E-1,-1.5087973E-1,8.373365E-1,6.527719E-1,6.439562E-2,5.206459E-1,1.9043827E-1,9.311304E-1,5.449953E-1,2.83134E0,-7.50763E-2,4.2762446E0,3.3739274E0,2.8238733E0,3.9069505E0,3.1449437E0,2.212853E0,6.256428E0,1.4895241E0,2.9533932E0,4.3208146E0,4.372478E0,1.5005565E0,3.0458128E0,2.3831356E0,2.7469814E0,1.6587695E0,8.492579E-1,2.325443E0,9.5872E-1,4.317877E0,2.6059663E0,2.2483366E0,7.9868674E-1,2.1408663E0,1.8420328E0,3.2399197E0,1.9790812E0,1.7024554E0],"split_indices":[12,8,10,11,8,14,10,13,3,11,15,7,6,15,15,0,0,15,15,3,15,3,0,0,14,14,6,13,4,8,8,0,15,4,0,0,0,0,14,3,0,0,0,3,3,15,15,9,15,11,11,0,9,11,6,4,1,15,5,4,9,8,7,0,0,0,0,0,0,0,0,0,0,0,0,0,0,0,0,0,0,0,0,0,0,0,0,0,0,0,0,0,0,0,0,0,0,0,0,0,0,0,0,0,0,0,0,0,0,0,0,0,0,0,0,0,0,0,0,0,0,0,0,0,0],"split_type":[0,0,0,0,0,0,0,0,0,0,0,0,0,0,0,0,0,0,0,0,0,0,0,0,0,0,0,0,0,0,0,0,0,0,0,0,0,0,0,0,0,0,0,0,0,0,0,0,0,0,0,0,0,0,0,0,0,0,0,0,0,0,0,0,0,0,0,0,0,0,0,0,0,0,0,0,0,0,0,0,0,0,0,0,0,0,0,0,0,0,0,0,0,0,0,0,0,0,0,0,0,0,0,0,0,0,0,0,0,0,0,0,0,0,0,0,0,0,0,0,0,0,0,0,0],"sum_hessian":[9.48616E5,9.35979E5,1.2637E4,8.40318E5,9.5661E4,7.03E2,1.1934E4,5.95314E5,2.45004E5,8.2253E4,1.3408E4,5.84E2,1.19E2,8.27E2,1.1107E4,5.15133E5,8.0181E4,1.87757E5,5.7247E4,2.8407E4,5.3846E4,1.0979E4,2.429E3,2.22E2,3.62E2,9E0,1.1E2,6.13E2,2.14E2,9.41E3,1.697E3,3.81063E5,1.3407E5,3.6137E4,4.4044E4,1.55881E5,3.1876E4,4.9347E4,7.9E3,2.3209E4,5.198E3,4.3717E4,1.0129E4,8.78E3,2.199E3,1.989E3,4.4E2,2.7E1,1.95E2,1.92E2,1.7E2,1E0,8E0,5.7E1,5.3E1,2.95E2,3.18E2,2.06E2,8E0,1.131E3,8.279E3,1.09E2,1.588E3,1.66268E5,2.14795E5,1.10176E5,2.3894E4,1.571E3,3.4566E4,2.4197E4,1.9847E4,1.17249E5,3.8632E4,2.1872E4,1.0004E4,3.7223E4,1.2124E4,4.89E2,7.411E3,8.633E3,1.4576E4,3.85E3,1.348E3,1.5534E4,2.8183E4,6.716E3,3.413E3,6.4E1,8.716E3,2.136E3,6.3E1,1.844E3,1.45E2,2.85E2,1.55E2,2.6E1,1E0,1.08E2,8.7E1,7.1E1,1.21E2,1.3E2,4E1,7E0,1E0,4E1,1.7E1,5.1E1,2E0,2.3E2,6.5E1,2.32E2,8.6E1,1.2E1,1.94E2,1E0,7E0,6.07E2,5.24E2,4.6E1,8.233E3,6.9E1,4E1,7.42E2,8.46E2],"tree_param":{"num_deleted":"0","num_feature":"16","num_nodes":"125","size_leaf_vector":"1"}},{"base_weights":[7.15711E-4,-2.71079E-1,2.0130041E1,-8.350137E-1,2.0492377E0,3.212051E1,1.9421083E1,-1.0985414E0,-1.0065813E-1,1.0008013E0,3.6712368E0,3.3105312E1,2.79167E1,2.3350252E1,1.9126451E1,-1.2506166E0,-3.2223693E-1,7.2850055E-1,-1.1777877E0,1.436911E0,-8.838361E-1,3.036276E0,6.9316096E0,3.412993E1,2.7538109E1,2.0490746E1,3.1218565E1,2.2994375E1,2.9960295E1,1.9609941E1,1.7105196E1,-1.4381965E0,-7.1663755E-1,4.5708278E-1,-9.37745E-1,-1.7039496E0,1.4144106E0,-5.7852155E-1,-1.4810263E0,8.746313E-1,3.191496E0,-1.2417008E0,7.114541E-1,3.4766312E0,1.0688137E0,7.7222266E0,5.9087944E0,3.5453472E1,2.8562958E1,2.8104443E1,1.1799826E-1,1.1370729E1,2.3375141E1,3.8303913E1,2.7524944E1,2.426753E1,2.0114065E1,3.913063E1,1.5790998E1,1.8249905E1,2.0425861E1,1.726207E1,6.5088863E0,-1.0007562E-1,-1.7738381E-1,-5.3846605E-2,-1.8134408E-1,1.0731629E-1,-2.7341742E-2,-1.9621222E-1,3.3826627E-2,-9.8785765E-2,-2.0531213E-1,1.836367E-1,-9.269787E-2,-2.678571E-1,-2.69112E-2,-2.0330511E-1,-6.0359366E-2,2.7486482E-1,-7.254058E-2,3.6616462E-1,1.3263687E-1,-3.845518E-1,-1.1413077E-1,2.584817E-1,-7.456463E-2,4.7474337E-1,2.785817E-1,1.2850676E-1,-1.7663135E-1,3.8488698E-1,7.95355E-1,4.8371884E-1,7.484054E-1,2.6331742E0,3.6164167E0,3.3297527E0,2.3916447E0,2.920402E0,1.07375E0,1.7678162E0,-2.256794E-1,2.504071E0,4.6232072E-1,1.8297075E0,4.2543244E0,4.5313025E0,2.464648E0,2.4733446E0,1.4447328E0,2.0749154E0,8.865757E-1,4.312061E0,9.398088E-1,9.493279E-1,3.388527E0,1.9961776E0,1.7198862E0,1.9833676E0,2.2449322E0,1.6629155E0,1.9791815E0,9.628028E-1,-6.45193E-1],"categories":[],"categories_nodes":[],"categories_segments":[],"categories_sizes":[],"default_left":[0,0,0,0,0,0,0,0,0,0,0,0,0,0,0,0,0,0,0,0,0,0,0,0,0,0,0,0,0,0,0,0,0,0,0,0,0,0,0,0,0,0,0,0,0,0,0,0,0,0,0,0,0,0,0,0,0,0,0,0,0,0,0,0,0,0,0,0,0,0,0,0,0,0,0,0,0,0,0,0,0,0,0,0,0,0,0,0,0,0,0,0,0,0,0,0,0,0,0,0,0,0,0,0,0,0,0,0,0,0,0,0,0,0,0,0,0,0,0,0,0,0,0,0,0],"id":11,"left_children":[1,3,5,7,9,11,13,15,17,19,21,23,25,27,29,31,33,35,37,39,41,43,45,47,49,51,53,55,57,59,61,63,65,67,69,71,73,75,77,79,81,83,85,87,89,91,93,95,97,99,-1,101,103,105,107,109,111,113,115,117,119,121,123,-1,-1,-1,-1,-1,-1,-1,-1,-1,-1,-1,-1,-1,-1,-1,-1,-1,-1,-1,-1,-1,-1,-1,-1,-1,-1,-1,-1,-1,-1,-1,-1,-1,-1,-1,-1,-1,-1,-1,-1,-1,-1,-1,-1,-1,-1,-1,-1,-1,-1,-1,-1,-1,-1,-1,-1,-1,-1,-1,-1,-1,-1],"loss_changes":[5.1899315E6,1.2247382E6,1.068085E5,1.45718E5,3.112078E5,1.9903125E3,1.33705E4,6.5417812E4,1.7759783E5,9.136217E4,1.4872138E5,2.283E3,2.7930469E3,1.2587812E3,1.051975E4,4.6410312E4,4.3541242E4,1.8746855E5,1.5716695E4,8.905369E4,1.1926372E4,5.2099688E4,9.4245625E3,2.4725E3,1.3551016E3,9.442715E2,1.4318828E3,2.4089062E3,4.4496406E3,9.5665E3,3.464875E3,5.0343625E4,2.3538824E4,1.8027357E4,6.629239E4,6.1776875E3,8.65928E4,1.8883703E4,2.781632E4,2.049882E5,1.9205172E4,4.455705E3,1.0451133E4,4.3126188E4,6.746449E3,5.8847812E3,8.589766E3,1.4981875E3,1.3155625E3,1.4241797E3,0E0,1.1573068E3,9.461406E2,1.7660508E3,2.2625547E3,2.1270938E3,1.5876641E3,2.323289E3,1.6155132E3,5.716625E3,6.253E3,3.06525E3,1.396198E3,0E0,0E0,0E0,0E0,0E0,0E0,0E0,0E0,0E0,0E0,0E0,0E0,0E0,0E0,0E0,0E0,0E0,0E0,0E0,0E0,0E0,0E0,0E0,0E0,0E0,0E0,0E0,0E0,0E0,0E0,0E0,0E0,0E0,0E0,0E0,0E0,0E0,0E0,0E0,0E0,0E0,0E0,0E0,0E0,0E0,0E0,0E0,0E0,0E0,0E0,0E0,0E0,0E0,0E0,0E0,0E0,0E0,0E0,0E0,0E0,0E0,0E0],"parents":[2147483647,0,0,1,1,2,2,3,3,4,4,5,5,6,6,7,7,8,8,9,9,10,10,11,11,12,12,13,13,14,14,15,15,16,16,17,17,18,18,19,19,20,20,21,21,22,22,23,23,24,24,25,25,26,26,27,27,28,28,29,29,30,30,31,31,32,32,33,33,34,34,35,35,36,36,37,37,38,38,39,39,40,40,41,41,42,42,43,43,44,44,45,45,46,46,47,47,48,48,49,49,51,51,52,52,53,53,54,54,55,55,56,56,57,57,58,58,59,59,60,60,61,61,62,62],"right_children":[2,4,6,8,10,12,14,16,18,20,22,24,26,28,30,32,34,36,38,40,42,44,46,48,50,52,54,56,58,60,62,64,66,68,70,72,74,76,78,80,82,84,86,88,90,92,94,96,98,100,-1,102,104,106,108,110,112,114,116,118,120,122,124,-1,-1,-1,-1,-1,-1,-1,-1,-1,-1,-1,-1,-1,-1,-1,-1,-1,-1,-1,-1,-1,-1,-1,-1,-1,-1,-1,-1,-1,-1,-1,-1,-1,-1,-1,-1,-1,-1,-1,-1,-1,-1,-1,-1,-1,-1,-1,-1,-1,-1,-1,-1,-1,-1,-1,-1,-1,-1,-1,-1,-1,-1],"split_conditions":[1E0,7.66E1,5E2,6.14E1,2.04E0,5.076E2,2E3,1.1E1,1E1,6.017E2,1.01E1,2.5E1,1.06E3,1.5E1,5.545E2,1.7E1,1E1,6E0,1E1,1.7E1,1.9E1,6.214E2,2.7E0,3.53E1,1.8E1,6.451613E-2,2.81E1,2.2222222E-1,4.516129E-1,8.51E1,4.6666667E-1,1E1,2.9166666E-1,4.5833334E-1,1.7E1,1E1,7.92E2,6E0,1.7E1,1E1,9E0,6E0,8.452E2,1E1,2.1885E3,6E0,1.7E1,6E0,1.7391305E-1,3.4E1,1.1799826E-1,1.2E1,3.51E1,8E0,5E0,1.6003E3,2.5E1,4E0,2.7E1,1E1,1.7E1,1.9E1,3.19E1,-1.0007562E-1,-1.7738381E-1,-5.3846605E-2,-1.8134408E-1,1.0731629E-1,-2.7341742E-2,-1.9621222E-1,3.3826627E-2,-9.8785765E-2,-2.0531213E-1,1.836367E-1,-9.269787E-2,-2.678571E-1,-2.69112E-2,-2.0330511E-1,-6.0359366E-2,2.7486482E-1,-7.254058E-2,3.6616462E-1,1.3263687E-1,-3.845518E-1,-1.1413077E-1,2.584817E-1,-7.456463E-2,4.7474337E-1,2.785817E-1,1.2850676E-1,-1.7663135E-1,3.8488698E-1,7.95355E-1,4.8371884E-1,7.484054E-1,2.6331742E0,3.6164167E0,3.3297527E0,2.3916447E0,2.920402E0,1.07375E0,1.7678162E0,-2.256794E-1,2.504071E0,4.6232072E-1,1.8297075E0,4.2543244E0,4.5313025E0,2.464648E0,2.4733446E0,1.4447328E0,2.0749154E0,8.865757E-1,4.312061E0,9.398088E-1,9.493279E-1,3.388527E0,1.9961776E0,1.7198862E0,1.9833676E0,2.2449322E0,1.6629155E0,1.9791815E0,9.628028E-1,-6.45193E-1],"split_indices":[12,11,10,11,8,15,10,13,3,15,8,4,15,13,15,0,0,3,0,0,0,15,15,7,0,14,7,14,14,11,14,0,14,14,0,0,15,0,0,0,3,0,15,0,15,0,0,0,14,7,0,0,7,4,5,15,4,1,13,0,0,0,7,0,0,0,0,0,0,0,0,0,0,0,0,0,0,0,0,0,0,0,0,0,0,0,0,0,0,0,0,0,0,0,0,0,0,0,0,0,0,0,0,0,0,0,0,0,0,0,0,0,0,0,0,0,0,0,0,0,0,0,0,0,0],"split_type":[0,0,0,0,0,0,0,0,0,0,0,0,0,0,0,0,0,0,0,0,0,0,0,0,0,0,0,0,0,0,0,0,0,0,0,0,0,0,0,0,0,0,0,0,0,0,0,0,0,0,0,0,0,0,0,0,0,0,0,0,0,0,0,0,0,0,0,0,0,0,0,0,0,0,0,0,0,0,0,0,0,0,0,0,0,0,0,0,0,0,0,0,0,0,0,0,0,0,0,0,0,0,0,0,0,0,0,0,0,0,0,0,0,0,0,0,0,0,0,0,0,0,0,0,0],"sum_hessian":[9.48616E5,9.35979E5,1.2637E4,7.52975E5,1.83004E5,7.03E2,1.1934E4,5.54124E5,1.98851E5,1.11156E5,7.1848E4,5.64E2,1.39E2,8.27E2,1.1107E4,4.63354E5,9.077E4,1.12359E5,8.6492E4,9.0268E4,2.0888E4,6.0138E4,1.171E4,4.72E2,9.2E1,4.5E1,9.4E1,7.89E2,3.8E1,8.956E3,2.151E3,3.42897E5,1.20457E5,4.0055E4,5.0715E4,2.4714E4,8.7645E4,2.9062E4,5.743E4,6.8362E4,2.1906E4,1.7061E4,3.827E3,4.9139E4,1.0999E4,6.601E3,5.109E3,3.77E2,9.5E1,9E1,2E0,1.2E1,3.3E1,2.9E1,6.5E1,5.42E2,2.47E2,2.2E1,1.6E1,3.367E3,5.589E3,2.119E3,3.2E1,1.48874E5,1.94023E5,1.03625E5,1.6832E4,2.1729E4,1.8326E4,2.8131E4,2.2584E4,8.102E3,1.6612E4,7.4262E4,1.3383E4,3.731E3,2.5331E4,3.5251E4,2.2179E4,3.1485E4,3.6877E4,1.7495E4,4.411E3,6.32E2,1.6429E4,1.674E3,2.153E3,1.7303E4,3.1836E4,1.022E4,7.79E2,3.73E2,6.228E3,3.043E3,2.066E3,3E1,3.47E2,4.4E1,5.1E1,8.4E1,6E0,8E0,4E0,3E1,3E0,6E0,2.3E1,7E0,5.8E1,5.16E2,2.6E1,2.33E2,1.4E1,1.9E1,3E0,1.3E1,3E0,1.274E3,2.093E3,4.332E3,1.257E3,1.701E3,4.18E2,2.6E1,6E0],"tree_param":{"num_deleted":"0","num_feature":"16","num_nodes":"125","size_leaf_vector":"1"}},{"base_weights":[7.118272E-4,-2.439688E-1,1.8121946E1,-5.954686E-1,2.8436959E0,2.8956287E1,1.7481352E1,-8.21788E-1,8.968995E-1,2.2959478E0,6.0334744E0,2.802264E1,3.3266518E1,1.8846527E1,1.6747953E1,-6.603907E-1,-1.6972036E0,1.2898867E0,-8.0104923E-1,1.8063868E0,3.73283E0,6.419818E0,4.4565406E0,2.9206917E1,2.3898031E1,4.8279945E1,3.176306E1,1.4116318E1,1.9411728E1,1.5572168E1,1.8616484E1,-1.5298794E-1,-9.3642294E-1,-1.9330448E0,-1.1842475E0,7.837982E-1,2.8685784E0,-1.3101827E0,1.4193137E-1,3.4278274E0,4.3733922E-1,4.286698E0,1.0503861E0,6.029563E0,7.750812E0,3.9150274E0,6.7190585E0,2.169081E1,3.037442E1,3.0571564E1,1.978798E1,7.0043564E-1,5.2563847E1,2.785645E1,3.5443188E1,4.244759E0,1.4865465E1,1.9119106E1,2.5477808E1,1.5147749E1,1.8277304E1,1.9685812E1,1.4915892E1,-2.2267044E-1,1.6120166E-2,-1.4799741E-1,-5.391822E-3,-1.7011562E-1,-2.1817522E-1,-3.0299413E-3,-1.3972996E-1,2.467021E-1,-6.562317E-2,3.2968268E-1,1.1711054E-1,-4.9941406E-1,-1.13134526E-1,1.5933761E-1,-5.3508785E-2,-7.566662E-2,4.044365E-1,-7.296274E-2,1.084675E-1,3.24969E-1,5.275959E-1,1.6000602E-1,-8.923407E-2,7.12324E-1,5.11332E-1,5.637301E-1,8.2740986E-1,4.795768E-1,3.0739778E-1,6.983811E-1,-3.5756248E-1,2.3287554E0,2.374368E-1,5.32258E0,2.9996793E0,3.2329617E0,2.2715263E-1,2.605571E-1,2.125887E0,1.2342271E0,5.6546607E0,2.3386972E0,3.6034982E0,4.3426166E0,3.0245416E0,-1.4036512E0,7.2503316E-1,1.2292991E0,1.7259451E0,2.2955759E0,1.8721287E0,2.7656708E0,1.5353216E0,1.6372188E0,1.4178998E0,1.9854335E0,1.4412836E0,2.0025601E0,1.1853731E0,1.3204296E0,1.9454759E0],"categories":[],"categories_nodes":[],"categories_segments":[],"categories_sizes":[],"default_left":[0,0,0,0,0,0,0,0,0,0,0,0,0,0,0,0,0,0,0,0,0,0,0,0,0,0,0,0,0,0,0,0,0,0,0,0,0,0,0,0,0,0,0,0,0,0,0,0,0,0,0,0,0,0,0,0,0,0,0,0,0,0,0,0,0,0,0,0,0,0,0,0,0,0,0,0,0,0,0,0,0,0,0,0,0,0,0,0,0,0,0,0,0,0,0,0,0,0,0,0,0,0,0,0,0,0,0,0,0,0,0,0,0,0,0,0,0,0,0,0,0,0,0,0,0],"id":12,"left_children":[1,3,5,7,9,11,13,15,17,19,21,23,25,27,29,31,33,35,37,39,41,43,45,47,49,51,53,55,57,59,61,63,65,67,69,71,73,75,77,79,81,83,85,87,89,91,93,95,97,99,101,-1,103,105,107,109,111,113,115,117,119,121,123,-1,-1,-1,-1,-1,-1,-1,-1,-1,-1,-1,-1,-1,-1,-1,-1,-1,-1,-1,-1,-1,-1,-1,-1,-1,-1,-1,-1,-1,-1,-1,-1,-1,-1,-1,-1,-1,-1,-1,-1,-1,-1,-1,-1,-1,-1,-1,-1,-1,-1,-1,-1,-1,-1,-1,-1,-1,-1,-1,-1,-1,-1],"loss_changes":[4.2060915E6,1.0158334E6,8.720725E4,2.8382006E5,1.6712631E5,1.900875E3,1.1634E4,1.0309316E5,7.3838016E4,5.7425062E4,8.5123125E3,2.1595625E3,1.175125E3,1.085575E4,1.678725E4,8.628797E4,1.3738656E4,7.1790484E4,9.985367E3,1.3518164E5,3.0819719E4,5.8009688E3,3.3576523E3,3.2899375E3,3.125336E3,1.223209E3,6.228828E2,3.2499766E3,6.109125E3,5.207625E3,1.15659375E4,1.4142953E5,1.9140153E5,4.4836562E3,8.79577E3,1.6493772E5,1.5852875E4,8.8925E3,7.1673623E3,7.192803E4,2.494473E4,1.7623719E4,3.7944895E3,8.691656E3,2.7724844E3,1.6378594E3,1.4749609E3,1.9186836E3,1.7429688E3,2.4142148E3,2.1433984E3,0E0,5.836289E2,1.3139297E3,9.2721875E2,1.9149769E3,2.34975E3,4.987125E3,3.281539E3,4.6726875E3,3.6325312E3,5.9420625E3,4.9947656E3,0E0,0E0,0E0,0E0,0E0,0E0,0E0,0E0,0E0,0E0,0E0,0E0,0E0,0E0,0E0,0E0,0E0,0E0,0E0,0E0,0E0,0E0,0E0,0E0,0E0,0E0,0E0,0E0,0E0,0E0,0E0,0E0,0E0,0E0,0E0,0E0,0E0,0E0,0E0,0E0,0E0,0E0,0E0,0E0,0E0,0E0,0E0,0E0,0E0,0E0,0E0,0E0,0E0,0E0,0E0,0E0,0E0,0E0,0E0,0E0,0E0,0E0],"parents":[2147483647,0,0,1,1,2,2,3,3,4,4,5,5,6,6,7,7,8,8,9,9,10,10,11,11,12,12,13,13,14,14,15,15,16,16,17,17,18,18,19,19,20,20,21,21,22,22,23,23,24,24,25,25,26,26,27,27,28,28,29,29,30,30,31,31,32,32,33,33,34,34,35,35,36,36,37,37,38,38,39,39,40,40,41,41,42,42,43,43,44,44,45,45,46,46,47,47,48,48,49,49,50,50,52,52,53,53,54,54,55,55,56,56,57,57,58,58,59,59,60,60,61,61,62,62],"right_children":[2,4,6,8,10,12,14,16,18,20,22,24,26,28,30,32,34,36,38,40,42,44,46,48,50,52,54,56,58,60,62,64,66,68,70,72,74,76,78,80,82,84,86,88,90,92,94,96,98,100,102,-1,104,106,108,110,112,114,116,118,120,122,124,-1,-1,-1,-1,-1,-1,-1,-1,-1,-1,-1,-1,-1,-1,-1,-1,-1,-1,-1,-1,-1,-1,-1,-1,-1,-1,-1,-1,-1,-1,-1,-1,-1,-1,-1,-1,-1,-1,-1,-1,-1,-1,-1,-1,-1,-1,-1,-1,-1,-1,-1,-1,-1,-1,-1,-1,-1,-1,-1,-1,-1,-1],"split_conditions":[1E0,2.01E0,5E2,7.66E1,9.97E0,3.125E-1,1E1,6.921E2,6.017E2,1.7E1,5.545E2,2.1E1,5.88E2,6E0,1.7E1,1E1,1.7E1,1.7E1,1.7E1,1E1,9.206E2,1.7E1,1.9E1,7.66E1,9E0,3.2258064E-1,1.428E3,4E0,2E1,2.064E3,9E0,6E0,1.7E1,1.3E1,8.641E2,1E1,9E0,6.921E2,8.452E2,6E0,8.11E1,8.55E1,2.2E1,1E1,2.44E1,1.2E1,2.2E1,1.2E1,1.14E1,2.46E3,7.692308E-2,7.0043564E-1,1.6E1,9.73E1,7E0,7.08E2,8.59E1,2.1E3,1.98E3,3E0,1.947E2,2.496E3,2.134E1,-2.2267044E-1,1.6120166E-2,-1.4799741E-1,-5.391822E-3,-1.7011562E-1,-2.1817522E-1,-3.0299413E-3,-1.3972996E-1,2.467021E-1,-6.562317E-2,3.2968268E-1,1.1711054E-1,-4.9941406E-1,-1.13134526E-1,1.5933761E-1,-5.3508785E-2,-7.566662E-2,4.044365E-1,-7.296274E-2,1.084675E-1,3.24969E-1,5.275959E-1,1.6000602E-1,-8.923407E-2,7.12324E-1,5.11332E-1,5.637301E-1,8.2740986E-1,4.795768E-1,3.0739778E-1,6.983811E-1,-3.5756248E-1,2.3287554E0,2.374368E-1,5.32258E0,2.9996793E0,3.2329617E0,2.2715263E-1,2.605571E-1,2.125887E0,1.2342271E0,5.6546607E0,2.3386972E0,3.6034982E0,4.3426166E0,3.0245416E0,-1.4036512E0,7.2503316E-1,1.2292991E0,1.7259451E0,2.2955759E0,1.8721287E0,2.7656708E0,1.5353216E0,1.6372188E0,1.4178998E0,1.9854335E0,1.4412836E0,2.0025601E0,1.1853731E0,1.3204296E0,1.9454759E0],"split_indices":[12,8,10,11,8,14,0,15,15,0,15,5,6,0,0,0,0,0,0,0,15,0,0,11,4,14,6,4,13,6,3,0,0,4,15,0,3,15,15,0,11,11,4,0,7,4,0,13,9,6,14,0,5,11,3,6,11,10,6,1,15,6,8,0,0,0,0,0,0,0,0,0,0,0,0,0,0,0,0,0,0,0,0,0,0,0,0,0,0,0,0,0,0,0,0,0,0,0,0,0,0,0,0,0,0,0,0,0,0,0,0,0,0,0,0,0,0,0,0,0,0,0,0,0,0],"split_type":[0,0,0,0,0,0,0,0,0,0,0,0,0,0,0,0,0,0,0,0,0,0,0,0,0,0,0,0,0,0,0,0,0,0,0,0,0,0,0,0,0,0,0,0,0,0,0,0,0,0,0,0,0,0,0,0,0,0,0,0,0,0,0,0,0,0,0,0,0,0,0,0,0,0,0,0,0,0,0,0,0,0,0,0,0,0,0,0,0,0,0,0,0,0,0,0,0,0,0,0,0,0,0,0,0,0,0,0,0,0,0,0,0,0,0,0,0,0,0,0,0,0,0,0,0],"sum_hessian":[9.48616E5,9.35979E5,1.2637E4,8.40318E5,9.5661E4,7.03E2,1.1934E4,7.29664E5,1.10654E5,8.1643E4,1.4018E4,5.84E2,1.19E2,4.162E3,7.772E3,6.16081E5,1.13583E5,8.9857E4,2.0797E4,6.0897E4,2.0746E4,1.1257E4,2.761E3,4.49E2,1.35E2,8E0,1.11E2,4.47E2,3.715E3,4.776E3,2.996E3,2.17068E5,3.99013E5,7.7807E4,3.5776E4,6.8045E4,2.1812E4,1.3505E4,7.292E3,2.7878E4,3.3019E4,1.7195E4,3.551E3,8.709E3,2.548E3,2.23E3,5.31E2,6.3E1,3.86E2,4.9E1,8.6E1,1E0,7E0,5.8E1,5.3E1,3.2E1,4.15E2,3.548E3,1.67E2,4.134E3,6.42E2,2.321E3,6.75E2,2.856E4,1.88508E5,2.46926E5,1.52087E5,4.0269E4,3.7538E4,5.576E3,3.02E4,3.1373E4,3.6672E4,1.7417E4,4.395E3,6.24E2,1.2881E4,2.319E3,4.973E3,3.58E3,2.4298E4,1.1781E4,2.1238E4,8.397E3,8.798E3,2.768E3,7.83E2,3.967E3,4.742E3,5.08E2,2.04E3,1.087E3,1.143E3,5.18E2,1.3E1,5.8E1,5E0,4E0,3.82E2,4.6E1,3E0,7E0,7.9E1,1E0,6E0,4E1,1.8E1,1.8E1,3.5E1,4E0,2.8E1,2.03E2,2.12E2,3.28E2,3.22E3,1.36E2,3.1E1,1.819E3,2.315E3,4.53E2,1.89E2,2.223E3,9.8E1,4.93E2,1.82E2],"tree_param":{"num_deleted":"0","num_feature":"16","num_nodes":"125","size_leaf_vector":"1"}},{"base_weights":[7.098578E-4,-2.1956728E-1,1.6314604E1,-5.359226E-1,2.5593793E0,2.6114117E1,1.5735202E1,-8.9085406E-1,2.8030437E-1,2.078708E0,5.5077405E0,3.3412872E1,2.560058E1,1.9130527E1,1.5480694E1,-7.2599286E-1,-1.5072095E0,9.304556E-1,-5.679349E-1,2.2937756E0,-8.911862E-1,5.835456E0,4.024685E0,2.3373692E1,4.193329E1,2.779316E1,2.36144E1,1.7034777E1,2.0092155E1,1.5013511E1,1.7503626E1,-1.6106118E0,-5.6306607E-1,-1.3759543E0,-2.1246834E0,-1.8508784E0,1.2488288E0,-1.5039419E-4,-9.96953E-1,8.3703613E-1,2.841109E0,-5.281876E-1,-3.1633892E0,2.5772438E0,5.979621E0,3.613068E0,5.872969E0,3.1834064E1,4.5887814E0,4.960383E0,4.538256E1,2.3200447E1,2.9976892E1,2.2204773E1,2.8920315E1,2.1058107E1,1.3657518E1,1.9639389E1,3.1380142E1,1.547297E1,1.3068321E1,1.8031357E1,1.4470156E1,-1.4781936E-1,-2.1808045E-1,5.2195042E-3,-8.2887314E-2,-1.5204535E-1,-1.00705564E-1,-2.6933157E-1,-1.9010352E-1,-1.1631798E-1,-2.1980694E-1,1.6558085E-1,-4.649956E-2,1.469241E-1,-5.2214563E-2,-6.1288007E-2,-1.4619742E-1,1.9409125E-1,2.5526762E-2,3.278835E-1,9.407395E-2,1.3947289E0,-5.644172E-2,7.6993324E-2,-3.6174744E-1,5.4776496E-1,1.3314085E-1,6.4981085E-1,4.9692917E-1,-3.6694195E-2,3.7605134E-1,7.8637826E-1,4.4568115E-1,3.5155072E0,-7.330017E-1,4.0212687E-2,1.6947682E0,8.091965E-1,-6.513901E-2,4.893653E0,8.931236E-1,3.9204023E0,2.1271646E0,9.5241183E-1,3.0542855E0,2.1399252E0,3.7350678E0,3.5713937E0,2.445174E0,1.689461E0,3.030364E0,9.1833586E-1,1.7244991E0,2.1168861E0,1.5295261E0,9.6612453E-1,4.233176E0,3.6068684E-1,1.554772E0,8.712662E-1,1.3451837E0,1.8192059E0,4.2788025E-2,1.0489453E0,1.6182865E0],"categories":[],"categories_nodes":[],"categories_segments":[],"categories_sizes":[],"default_left":[0,0,0,0,0,0,0,0,0,0,0,0,0,0,0,0,0,0,0,0,0,0,0,0,0,0,0,0,0,0,0,0,0,0,0,0,0,0,0,0,0,0,0,0,0,0,0,0,0,0,0,0,0,0,0,0,0,0,0,0,0,0,0,0,0,0,0,0,0,0,0,0,0,0,0,0,0,0,0,0,0,0,0,0,0,0,0,0,0,0,0,0,0,0,0,0,0,0,0,0,0,0,0,0,0,0,0,0,0,0,0,0,0,0,0,0,0,0,0,0,0,0,0,0,0,0,0],"id":13,"left_children":[1,3,5,7,9,11,13,15,17,19,21,23,25,27,29,31,33,35,37,39,41,43,45,47,49,51,53,55,57,59,61,63,65,67,69,71,73,75,77,79,81,83,85,87,89,91,93,95,97,99,101,103,105,107,109,111,113,115,117,119,121,123,125,-1,-1,-1,-1,-1,-1,-1,-1,-1,-1,-1,-1,-1,-1,-1,-1,-1,-1,-1,-1,-1,-1,-1,-1,-1,-1,-1,-1,-1,-1,-1,-1,-1,-1,-1,-1,-1,-1,-1,-1,-1,-1,-1,-1,-1,-1,-1,-1,-1,-1,-1,-1,-1,-1,-1,-1,-1,-1,-1,-1,-1,-1,-1,-1],"loss_changes":[3.4089328E6,8.228536E5,7.1346E4,2.434446E5,1.3556E5,1.7833438E3,1.001725E4,5.9508844E4,1.404458E5,5.2539938E4,6.4935312E3,2.698E3,2.2265625E3,1.3264375E3,1.023525E4,6.659533E4,1.0013625E4,1.2766335E5,2.6916922E4,6.115225E4,4.580129E3,5.142125E3,1.8274883E3,3.3503213E3,2.5805352E3,2.4035625E3,2.0055469E3,3.3403438E3,2.2559844E3,7.869125E3,3.065625E3,5.422875E3,6.3813477E4,5.4317656E3,2.7499688E3,3.533039E3,9.022903E4,3.6480016E4,1.1240668E4,1.3452963E4,4.637372E4,2.520468E3,1.3691245E3,1.6801775E3,5.4754062E3,1.1691797E3,1.2082666E3,2.2086523E3,4.0712445E2,5.799221E1,2.153875E3,2.3763086E3,2.0936875E3,2.6656094E3,1.2821367E3,4.107285E3,2.21717E3,3.2840312E3,4.348162E3,6.419E3,2.7760312E3,4.9880625E3,1.9642188E3,0E0,0E0,0E0,0E0,0E0,0E0,0E0,0E0,0E0,0E0,0E0,0E0,0E0,0E0,0E0,0E0,0E0,0E0,0E0,0E0,0E0,0E0,0E0,0E0,0E0,0E0,0E0,0E0,0E0,0E0,0E0,0E0,0E0,0E0,0E0,0E0,0E0,0E0,0E0,0E0,0E0,0E0,0E0,0E0,0E0,0E0,0E0,0E0,0E0,0E0,0E0,0E0,0E0,0E0,0E0,0E0,0E0,0E0,0E0,0E0,0E0,0E0,0E0,0E0],"parents":[2147483647,0,0,1,1,2,2,3,3,4,4,5,5,6,6,7,7,8,8,9,9,10,10,11,11,12,12,13,13,14,14,15,15,16,16,17,17,18,18,19,19,20,20,21,21,22,22,23,23,24,24,25,25,26,26,27,27,28,28,29,29,30,30,31,31,32,32,33,33,34,34,35,35,36,36,37,37,38,38,39,39,40,40,41,41,42,42,43,43,44,44,45,45,46,46,47,47,48,48,49,49,50,50,51,51,52,52,53,53,54,54,55,55,56,56,57,57,58,58,59,59,60,60,61,61,62,62],"right_children":[2,4,6,8,10,12,14,16,18,20,22,24,26,28,30,32,34,36,38,40,42,44,46,48,50,52,54,56,58,60,62,64,66,68,70,72,74,76,78,80,82,84,86,88,90,92,94,96,98,100,102,104,106,108,110,112,114,116,118,120,122,124,126,-1,-1,-1,-1,-1,-1,-1,-1,-1,-1,-1,-1,-1,-1,-1,-1,-1,-1,-1,-1,-1,-1,-1,-1,-1,-1,-1,-1,-1,-1,-1,-1,-1,-1,-1,-1,-1,-1,-1,-1,-1,-1,-1,-1,-1,-1,-1,-1,-1,-1,-1,-1,-1,-1,-1,-1,-1,-1,-1,-1,-1,-1,-1,-1],"split_conditions":[1E0,2.01E0,5E2,6.38E1,1.01E1,6.96E2,2E3,2.2E1,9E0,1E1,6.081E2,8E0,3.01E1,1.176E3,3.3E1,4E0,6.743E2,6E0,1E1,7E0,7.73E1,6E0,1.9E1,5E0,4.5454547E-2,1.1764706E-1,1.86E3,1.388889E-1,1.6E1,5.6E2,2.3E1,5.894E2,7E0,5.51E1,1E1,1E1,5.894E2,7E1,1.3E1,1E1,6.017E2,2E3,6.2E0,7E0,3.28E1,6E0,8.272E2,9E0,6E0,1.4E1,3.61E1,1.14E1,1E0,2.9E1,7E0,9.677419E-2,7E0,7E0,7E0,9.9E0,6.146E2,2.526E1,2.92E1,-1.4781936E-1,-2.1808045E-1,5.2195042E-3,-8.2887314E-2,-1.5204535E-1,-1.00705564E-1,-2.6933157E-1,-1.9010352E-1,-1.1631798E-1,-2.1980694E-1,1.6558085E-1,-4.649956E-2,1.469241E-1,-5.2214563E-2,-6.1288007E-2,-1.4619742E-1,1.9409125E-1,2.5526762E-2,3.278835E-1,9.407395E-2,1.3947289E0,-5.644172E-2,7.6993324E-2,-3.6174744E-1,5.4776496E-1,1.3314085E-1,6.4981085E-1,4.9692917E-1,-3.6694195E-2,3.7605134E-1,7.8637826E-1,4.4568115E-1,3.5155072E0,-7.330017E-1,4.0212687E-2,1.6947682E0,8.091965E-1,-6.513901E-2,4.893653E0,8.931236E-1,3.9204023E0,2.1271646E0,9.5241183E-1,3.0542855E0,2.1399252E0,3.7350678E0,3.5713937E0,2.445174E0,1.689461E0,3.030364E0,9.1833586E-1,1.7244991E0,2.1168861E0,1.5295261E0,9.6612453E-1,4.233176E0,3.6068684E-1,1.554772E0,8.712662E-1,1.3451837E0,1.8192059E0,4.2788025E-2,1.0489453E0,1.6182865E0],"split_indices":[12,8,10,11,8,6,10,4,3,3,15,0,7,6,9,4,15,3,3,3,11,0,0,1,14,14,6,14,13,15,4,15,4,11,0,0,15,11,4,0,15,10,9,5,7,0,15,3,13,0,7,9,5,5,3,14,13,13,4,9,15,8,7,0,0,0,0,0,0,0,0,0,0,0,0,0,0,0,0,0,0,0,0,0,0,0,0,0,0,0,0,0,0,0,0,0,0,0,0,0,0,0,0,0,0,0,0,0,0,0,0,0,0,0,0,0,0,0,0,0,0,0,0,0,0,0,0],"split_type":[0,0,0,0,0,0,0,0,0,0,0,0,0,0,0,0,0,0,0,0,0,0,0,0,0,0,0,0,0,0,0,0,0,0,0,0,0,0,0,0,0,0,0,0,0,0,0,0,0,0,0,0,0,0,0,0,0,0,0,0,0,0,0,0,0,0,0,0,0,0,0,0,0,0,0,0,0,0,0,0,0,0,0,0,0,0,0,0,0,0,0,0,0,0,0,0,0,0,0,0,0,0,0,0,0,0,0,0,0,0,0,0,0,0,0,0,0,0,0,0,0,0,0,0,0,0,0],"sum_hessian":[9.48616E5,9.35979E5,1.2637E4,8.40318E5,9.5661E4,7.03E2,1.1934E4,5.85651E5,2.54667E5,8.2253E4,1.3408E4,4.2E1,6.61E2,8.27E2,1.1107E4,4.62062E5,1.23589E5,1.44167E5,1.105E5,7.6699E4,5.554E3,1.0979E4,2.429E3,2.1E1,2.1E1,3.08E2,3.53E2,2.66E2,5.61E2,9.03E3,2.077E3,7.1864E4,3.90198E5,1.01926E5,2.1663E4,1.4807E4,1.2936E5,4.7559E4,6.2941E4,2.0948E4,5.5751E4,4.79E3,7.64E2,4.66E2,1.0513E4,1.989E3,4.4E2,1.4E1,7E0,2E0,1.9E1,1.03E2,2.05E2,2.83E2,7E1,1.19E2,1.47E2,5.42E2,1.9E1,7.299E3,1.731E3,1.765E3,3.12E2,5.8323E4,1.3541E4,1.17718E5,2.7248E5,7.3236E4,2.869E4,6.112E3,1.5551E4,4.969E3,9.838E3,1.04536E5,2.4824E4,1.2466E4,3.5093E4,3.4472E4,2.8469E4,7.229E3,1.3719E4,4.5313E4,1.0438E4,1.1E1,4.779E3,7.9E1,6.85E2,1.39E2,3.27E2,6.944E3,3.569E3,7.1E1,1.918E3,1.81E2,2.59E2,1.3E1,1E0,6E0,1E0,1E0,1E0,1.7E1,2E0,9E0,9.4E1,6E0,1.99E2,2.71E2,1.2E1,2.5E1,4.5E1,8.4E1,3.5E1,6.7E1,8E1,3.98E2,1.44E2,7E0,1.2E1,4.6E1,7.253E3,1.42E2,1.589E3,1.749E3,1.6E1,9.6E1,2.16E2],"tree_param":{"num_deleted":"0","num_feature":"16","num_nodes":"127","size_leaf_vector":"1"}},{"base_weights":[7.037093E-4,-1.9760667E-1,1.4687722E1,-5.6366503E-1,1.7520183E0,2.3549572E1,1.4163765E1,-8.236908E-1,5.2358594E-2,1.4711095E0,5.038292E0,2.4774569E1,2.0796217E1,1.5376659E1,1.3512351E1,-5.583831E-1,-1.1655338E0,6.581425E-1,-9.184303E-1,2.5158246E0,9.3496346E-1,5.7247005E0,4.150223E0,2.394978E1,3.3289753E1,2.9778267E1,1.986229E1,1.1136199E1,1.588375E1,1.2436611E1,1.5222493E1,-1.4833051E0,-3.0218908E-1,-1.0413086E0,-1.7523637E0,-1.3762383E0,1.0882883E0,-5.797344E-1,-1.3323833E0,-1.4419248E0,3.1019788E0,-1.7677312E-1,2.678682E0,6.050952E0,3.8668084E0,3.198748E0,5.6009088E0,3.2658432E1,2.3260868E1,3.9013878E1,2.412616E1,3.4538418E1,9.542157E0,1.8931461E1,3.2153625E1,8.6347365E-1,1.1715638E1,1.6428728E1,1.3188145E1,1.2070173E1,1.4996781E1,1.6181211E1,1.1906862E1,-1.3694997E-1,-1.9726789E-1,4.814837E-2,-7.099134E-2,-1.3705428E-1,-8.327537E-2,-2.1555291E-1,-1.5946275E-1,1.248139E0,-1.391083E-1,2.5541422E-1,6.4950235E-2,-1.6598403E-1,-2.7187971E-2,-1.2078201E-1,-1.991224E-1,-8.962891E-2,-4.0334877E-1,3.8536257E-1,2.9215876E-2,-7.133537E-2,6.951498E-2,3.1792194E-1,2.4701795E-2,3.8764617E-1,6.3315415E-1,4.697984E-1,2.5163596E-2,1.6529922E-1,3.6218473E-1,3.138652E-1,6.128339E-1,3.6770298E0,4.7450438E-1,2.5198314E0,1.9608444E0,4.154682E0,1.659569E0,3.1130085E0,1.6839112E0,2.3906696E0,4.327372E0,1.5959829E0,-5.6233723E-3,2.0878994E0,1.3794125E0,-7.499706E-1,4.004512E0,4.361802E-1,-1.8593203E0,1.1975119E0,-8.3573514E-1,6.7540514E-1,1.6707042E0,1.2128631E0,1.8491402E0,1.3202299E0,1.1181015E0,1.2695596E0,1.7270626E0,1.6486988E0,9.148615E-1,1.0380992E0,1.5960816E0],"categories":[],"categories_nodes":[],"categories_segments":[],"categories_sizes":[],"default_left":[0,0,0,0,0,0,0,0,0,0,0,0,0,0,0,0,0,0,0,0,0,0,0,0,0,0,0,0,0,0,0,0,0,0,0,0,0,0,0,0,0,0,0,0,0,0,0,0,0,0,0,0,0,0,0,0,0,0,0,0,0,0,0,0,0,0,0,0,0,0,0,0,0,0,0,0,0,0,0,0,0,0,0,0,0,0,0,0,0,0,0,0,0,0,0,0,0,0,0,0,0,0,0,0,0,0,0,0,0,0,0,0,0,0,0,0,0,0,0,0,0,0,0,0,0,0,0],"id":14,"left_children":[1,3,5,7,9,11,13,15,17,19,21,23,25,27,29,31,33,35,37,39,41,43,45,47,49,51,53,55,57,59,61,63,65,67,69,71,73,75,77,79,81,83,85,87,89,91,93,95,97,99,101,103,105,107,109,111,113,115,117,119,121,123,125,-1,-1,-1,-1,-1,-1,-1,-1,-1,-1,-1,-1,-1,-1,-1,-1,-1,-1,-1,-1,-1,-1,-1,-1,-1,-1,-1,-1,-1,-1,-1,-1,-1,-1,-1,-1,-1,-1,-1,-1,-1,-1,-1,-1,-1,-1,-1,-1,-1,-1,-1,-1,-1,-1,-1,-1,-1,-1,-1,-1,-1,-1,-1,-1],"loss_changes":[2.7629335E6,6.6798794E5,5.83475E4,1.2622714E5,1.365791E5,1.85925E3,9.22225E3,5.0254906E4,1.3755388E5,7.634644E4,7.0784375E3,2.5879375E3,1.2791875E3,8.77475E3,1.4110375E4,7.392854E4,1.7649656E4,1.2603583E5,1.25999375E4,1.0724659E5,1.7462753E5,3.9583281E3,6.9981094E3,1.8980938E3,1.1568828E3,1.5006406E3,1.7367188E3,2.6565664E3,5.2423125E3,4.3004375E3,9.334125E3,3.7662344E3,7.806542E4,1.3720281E4,2.6866484E3,5.1885586E3,7.646728E4,1.6436467E4,3.3166406E3,8.429773E3,8.503822E4,2.57373E4,4.2686688E4,3.3837031E3,2.955582E3,2.003125E3,2.5936875E3,3.2688086E3,2.4355312E3,6.1653516E2,3.9448047E2,3.5853906E2,3.08894E2,1.6429844E3,4.368336E3,1.782746E3,2.3085E3,8.19925E3,3.3156172E3,4.064125E3,2.888875E3,4.8423125E3,4.0159219E3,0E0,0E0,0E0,0E0,0E0,0E0,0E0,0E0,0E0,0E0,0E0,0E0,0E0,0E0,0E0,0E0,0E0,0E0,0E0,0E0,0E0,0E0,0E0,0E0,0E0,0E0,0E0,0E0,0E0,0E0,0E0,0E0,0E0,0E0,0E0,0E0,0E0,0E0,0E0,0E0,0E0,0E0,0E0,0E0,0E0,0E0,0E0,0E0,0E0,0E0,0E0,0E0,0E0,0E0,0E0,0E0,0E0,0E0,0E0,0E0,0E0,0E0,0E0,0E0],"parents":[2147483647,0,0,1,1,2,2,3,3,4,4,5,5,6,6,7,7,8,8,9,9,10,10,11,11,12,12,13,13,14,14,15,15,16,16,17,17,18,18,19,19,20,20,21,21,22,22,23,23,24,24,25,25,26,26,27,27,28,28,29,29,30,30,31,31,32,32,33,33,34,34,35,35,36,36,37,37,38,38,39,39,40,40,41,41,42,42,43,43,44,44,45,45,46,46,47,47,48,48,49,49,50,50,51,51,52,52,53,53,54,54,55,55,56,56,57,57,58,58,59,59,60,60,61,61,62,62],"right_children":[2,4,6,8,10,12,14,16,18,20,22,24,26,28,30,32,34,36,38,40,42,44,46,48,50,52,54,56,58,60,62,64,66,68,70,72,74,76,78,80,82,84,86,88,90,92,94,96,98,100,102,104,106,108,110,112,114,116,118,120,122,124,126,-1,-1,-1,-1,-1,-1,-1,-1,-1,-1,-1,-1,-1,-1,-1,-1,-1,-1,-1,-1,-1,-1,-1,-1,-1,-1,-1,-1,-1,-1,-1,-1,-1,-1,-1,-1,-1,-1,-1,-1,-1,-1,-1,-1,-1,-1,-1,-1,-1,-1,-1,-1,-1,-1,-1,-1,-1,-1,-1,-1,-1,-1,-1,-1],"split_conditions":[1E0,8.03E1,5E2,6.14E1,9.79E0,7.66E1,1E1,1.3E1,1E1,1E1,2.7E0,1.8E1,2.24E1,6E0,1.7E1,4E0,6.66E2,6E0,1.3E1,6E0,1.7E1,9E0,1.7E1,6.6E2,2.88E1,2.1E1,2.7E1,3E0,8.28E1,2.112E3,9E0,5.894E2,1E1,2.1E1,1E1,2E3,6.82E1,4E0,7.233E2,2.7E0,2.7E0,2.1E0,1.0106E3,7E0,6.9E3,1.069E1,2.37E1,2.5E1,1.9E1,2.2E1,1.4705883E-1,6E0,1.8E1,1.5E1,9.36E2,4.348E2,1.3E1,1.41E1,6E0,3E0,8.9E1,2.496E3,2.134E1,-1.3694997E-1,-1.9726789E-1,4.814837E-2,-7.099134E-2,-1.3705428E-1,-8.327537E-2,-2.1555291E-1,-1.5946275E-1,1.248139E0,-1.391083E-1,2.5541422E-1,6.4950235E-2,-1.6598403E-1,-2.7187971E-2,-1.2078201E-1,-1.991224E-1,-8.962891E-2,-4.0334877E-1,3.8536257E-1,2.9215876E-2,-7.133537E-2,6.951498E-2,3.1792194E-1,2.4701795E-2,3.8764617E-1,6.3315415E-1,4.697984E-1,2.5163596E-2,1.6529922E-1,3.6218473E-1,3.138652E-1,6.128339E-1,3.6770298E0,4.7450438E-1,2.5198314E0,1.9608444E0,4.154682E0,1.659569E0,3.1130085E0,1.6839112E0,2.3906696E0,4.327372E0,1.5959829E0,-5.6233723E-3,2.0878994E0,1.3794125E0,-7.499706E-1,4.004512E0,4.361802E-1,-1.8593203E0,1.1975119E0,-8.3573514E-1,6.7540514E-1,1.6707042E0,1.2128631E0,1.8491402E0,1.3202299E0,1.1181015E0,1.2695596E0,1.7270626E0,1.6486988E0,9.148615E-1,1.0380992E0,1.5960816E0],"split_indices":[12,11,10,11,8,15,0,4,3,0,15,0,7,0,0,4,15,3,4,0,0,3,0,6,7,5,5,4,15,6,3,15,0,4,0,10,11,4,15,15,15,8,15,3,10,8,7,4,5,4,14,5,0,5,6,15,13,9,1,1,11,6,8,0,0,0,0,0,0,0,0,0,0,0,0,0,0,0,0,0,0,0,0,0,0,0,0,0,0,0,0,0,0,0,0,0,0,0,0,0,0,0,0,0,0,0,0,0,0,0,0,0,0,0,0,0,0,0,0,0,0,0,0,0,0,0,0],"split_type":[0,0,0,0,0,0,0,0,0,0,0,0,0,0,0,0,0,0,0,0,0,0,0,0,0,0,0,0,0,0,0,0,0,0,0,0,0,0,0,0,0,0,0,0,0,0,0,0,0,0,0,0,0,0,0,0,0,0,0,0,0,0,0,0,0,0,0,0,0,0,0,0,0,0,0,0,0,0,0,0,0,0,0,0,0,0,0,0,0,0,0,0,0,0,0,0,0,0,0,0,0,0,0,0,0,0,0,0,0,0,0,0,0,0,0,0,0,0,0,0,0,0,0,0,0,0,0],"sum_hessian":[9.48616E5,9.35979E5,1.2637E4,7.88022E5,1.47957E5,7.03E2,1.1934E4,5.54124E5,2.33898E5,1.36307E5,1.165E4,4.81E2,2.22E2,4.162E3,7.772E3,3.11989E5,2.42135E5,1.44025E5,8.9873E4,4.6227E4,9.008E4,6.568E3,5.082E3,4.42E2,3.9E1,1.8E1,2.04E2,4.47E2,3.715E3,4.776E3,2.996E3,6.7672E4,2.44317E5,1.99835E5,4.23E4,2.5137E4,1.18888E5,4.9431E4,4.0442E4,5.963E3,4.0264E4,5.5009E4,3.5071E4,5.585E3,9.83E2,3.071E3,2.011E3,2.9E1,4.13E2,2.2E1,1.7E1,1.4E1,4E0,1.92E2,1.2E1,2.4E1,4.23E2,3.086E3,6.29E2,4.183E3,5.93E2,2.321E3,6.75E2,5.4907E4,1.2765E4,8.3611E4,1.60706E5,7.7494E4,1.22341E5,1.1892E4,3.0408E4,2.6E1,2.5111E4,2.7388E4,9.15E4,1.0963E4,3.8468E4,3.4014E4,6.428E3,4.927E3,1.036E3,3.1766E4,8.498E3,3.4053E4,2.0956E4,2.9084E4,5.987E3,6.4E2,4.945E3,7.99E2,1.84E2,6.61E2,2.41E3,3.56E2,1.655E3,2.5E1,4E0,2.66E2,1.47E2,1.9E1,3E0,7E0,1E1,8E0,6E0,2E0,2E0,1.37E2,5.5E1,2E0,1E1,2.1E1,3E0,4.18E2,5E0,8.7E1,2.999E3,5.27E2,1.02E2,1.834E3,2.349E3,2.98E2,2.95E2,2.223E3,9.8E1,4.93E2,1.82E2],"tree_param":{"num_deleted":"0","num_feature":"16","num_nodes":"127","size_leaf_vector":"1"}},{"base_weights":[6.8871776E-4,-1.778425E-1,1.3222847E1,-4.418637E-1,2.1413877E0,2.12433E1,1.2748644E1,-7.568863E-1,1.4181094E-1,1.7405337E0,4.4757323E0,2.044958E1,2.5130701E1,1.5804567E1,1.2519705E1,-6.110568E-1,-1.3027173E0,5.571162E-1,-8.468625E-1,1.3085173E0,3.0085335E0,4.77193E0,3.2668009E0,2.1484547E1,1.6904003E1,4.2258675E1,2.362927E1,1.4869448E1,1.7871065E1,1.215276E1,1.468635E1,-7.1341234E-1,7.106476E-1,-1.2050521E0,-1.7605059E0,1.4849064E0,8.141353E-2,-3.7426075E-1,-1.0872895E0,2.6767762E0,1.5324785E-1,3.4564185E0,8.8569814E-1,5.9162846E0,4.3234696E0,2.5998254E0,4.396297E0,1.5340354E1,2.2474321E1,2.2826275E1,1.3279688E1,8.128883E-1,4.597309E0,2.739114E1,1.9360157E1,1.352727E1,1.8158775E1,2.1212078E1,1.4647775E1,1.2370331E1,8.87975E0,1.4191091E1,1.8675026E1,-5.214394E-2,-1.352958E-1,1.9379325E-2,2.1801452E-1,-1.0114942E-1,-1.4125438E-1,-2.2421901E-1,-1.571391E-1,-1.7924674E-1,1.9797288E-1,-8.835915E-2,1.5754832E-1,2.3222143E-2,-1.12869896E-1,-1.521894E-1,-3.9010573E-2,-8.391732E-2,3.1948197E-1,5.4969437E-2,-1.1458391E-1,2.1747831E-2,3.710887E-1,1.3554451E-1,-7.748311E-2,6.5259796E-1,4.1516796E-1,3.2243916E-1,4.6997508E-1,2.8177074E-1,-4.448098E-2,4.5092168E-1,-4.0721583E-1,1.7470309E0,1.665577E-1,2.4518802E0,1.9173853E0,-5.675375E-1,2.4105432E0,8.482283E-1,1.833203E0,2.9160988E0,1.1089187E0,2.0901725E0,-5.13484E-1,1.9976577E0,1.2664479E0,2.1052845E0,8.343096E-1,7.699106E-1,2.3034465E0,1.6100563E-1,1.5588664E0,1.2760209E0,1.0676183E0,4.788404E-1,1.0184534E0,1.6374191E0,1.3109751E0,1.0186161E0,2.1557295E0],"categories":[],"categories_nodes":[],"categories_segments":[],"categories_sizes":[],"default_left":[0,0,0,0,0,0,0,0,0,0,0,0,0,0,0,0,0,0,0,0,0,0,0,0,0,0,0,0,0,0,0,0,0,0,0,0,0,0,0,0,0,0,0,0,0,0,0,0,0,0,0,0,0,0,0,0,0,0,0,0,0,0,0,0,0,0,0,0,0,0,0,0,0,0,0,0,0,0,0,0,0,0,0,0,0,0,0,0,0,0,0,0,0,0,0,0,0,0,0,0,0,0,0,0,0,0,0,0,0,0,0,0,0,0,0,0,0,0,0,0,0,0,0],"id":15,"left_children":[1,3,5,7,9,11,13,15,17,19,21,23,25,27,29,31,33,35,37,39,41,43,45,47,49,51,53,55,57,59,61,63,65,67,69,71,73,75,77,79,81,83,85,87,89,91,93,95,97,99,101,-1,-1,103,105,107,109,111,113,115,117,119,121,-1,-1,-1,-1,-1,-1,-1,-1,-1,-1,-1,-1,-1,-1,-1,-1,-1,-1,-1,-1,-1,-1,-1,-1,-1,-1,-1,-1,-1,-1,-1,-1,-1,-1,-1,-1,-1,-1,-1,-1,-1,-1,-1,-1,-1,-1,-1,-1,-1,-1,-1,-1,-1,-1,-1,-1,-1,-1,-1,-1],"loss_changes":[2.2392775E6,5.7312575E5,4.77955E4,1.5451014E5,8.950616E4,1.6582812E3,8.152E3,4.344075E4,1.2094719E5,4.4720375E4,5.0043438E3,1.8018438E3,1.9588594E3,1.3343125E3,8.653E3,5.826642E4,5.142547E3,9.15487E4,9.900184E3,9.6261516E4,1.972289E4,